0.084469 -0.0463717 -0.0113778 0.0870405 0.0228803 -0.0297658 -0.0097787 -0.0613998 0.00380582 0.0363294 0.00890727 -0.000312963 0.0701326 0.00804109 0.0302049 -0.00500161 0.055442 0.0201367 0.0053648 0.0304894 0.0170421 0.017011 -0.0473314 0.0524418 -0.0471951 0.0605148 -0.00306434 0.0346831 -0.0702656 0.0640691 -0.0515836 0.0387267 0.00781447 -0.103773 -0.00608079 -5.29752e-05 0.0596007 -0.034863 0.0129898 0.0270227 0.014352 0.0162457 0.0386936 0.0362073 -0.0352914 0.0693303 -0.0595481 0.043244 -0.0691574 -0.0417313 0.00107728 -0.0200002 0.0335085 -0.0262505 0.00456236 0.063389 0.00830328 0.00278401 -0.0484076 0.0195552 0.0306742 0.00804011 0.0211424 -0.0806615 0.00896542 0.0148233 0.023231 0.0535864 0.068205 0.020089 0.0110197 -0.0305541 0.0101916 -0.0154478 0.0929866 0.0508801 0.0440137 0.0186467 -0.0400881 0.00165654 -0.015867 0.0367325 -0.0555374 0.0202096 -0.0442274 -0.00559873 0.0560687 0.0193284 -0.0460335 0.0106884 -0.019068 0.0466931 0.0692453 0.00972429 -0.0292006 0.0127809 -0.0230902 0.0209841 -0.0431978 0.0141308 0.0468977 -0.0318878 0.0268191 -0.0463694 0.00524025 0.00988192 0.0170682 0.0174421 0.0215612 0.0558374 0.0505056 0.0642378 -0.0193419 0.0190938 0.0422744 0.013002 -0.0289901 -0.0148253 0.0207481 0.0702465 0.00523747 -0.0229736 0.0199696 0.0499729 -0.0203854 -0.102713 -0.00732213 0.00200232 -0.0253843 0.00598587 0.0349968 -0.0089212 0.0219802 0.0187286 0.0223177 -0.00806554 0.0411361 -0.0445232 -0.0668688 0.0237261 0.0145204 -0.0380648 -0.0224467 -0.0151604 -0.0189058 -0.00582165 -0.0116546 0.0123308 -0.0109185 -0.0596577 -0.0182773 -0.0254106 0.039351 -0.00315105 -0.0184303 -0.0369886 0.00854359 0.0284668 -0.0638168 -0.030708 -0.016694 0.0157698 -0.0155784 0.0224173 -0.0064928 -0.00866003 0.0290492 -0.0233958 -0.0280246 -0.0591512 0.0162295 0.0185509 0.0453555 0.0246409 -0.00445493 0.0282668 -0.0429948 0.0298537 -0.0121781 -0.0237871 -0.0338083 0.0210726 0.0207085 0.00481292 -0.00178056 -0.0128773 -0.0236378 -0.0271036 0.00114781 -0.0179281 -0.0151388 -0.0155363 -0.0413646 0.0806341 0.0600719 -0.0138117 0.0168507 -0.0204243 0.0101038 -0.0283871 -0.0184265 0.0576825 0.0223508 -0.0653137 -0.0210618 0.0329806 -0.00457941 0.0539 0.0137551 0.00314589 0.0212177 0.0302807 0.0860568 -0.000717742 0.00400477 0.0507766 0.00801613 0.0406143 0.0677223 0.00795742 -0.0159744 -0.0154995 -0.0315712 -0.0277818 -0.0439957 -0.0106337 -0.0142142 -0.0226876 0.00959385 0.0170852 0.0199817 -0.0150435 -0.0311299 0.0684384 0.0269063 0.00224536 -0.0481311 -0.00761247 0.0256611 -0.0197536 0.0513231 0.0393217 -0.0250719 -0.0279422 0.0329714 0.0234906 -0.0528482 0.00660738 -0.0117775 0.0434207 0.0162805 0.0406765 0.0415061 -0.0175021 0.0132867 0.0265939 -0.00298938 0.0843875 0.000478927 -0.0213002 0.0558186 0.0379985 0.0675017 -0.0197635 0.0200117 0.0117266 -0.0247155 -0.0216072 0.0219363 -0.0218564 0.0211652 0.0200647 -0.0584591 -0.0152365 -0.0167715 -0.034631 0.0387494 0.0284128 0.0624723 0.0262671 -0.0156255 -0.0102024 -0.0145533 -0.0158199 -0.0535661 -0.0333864 -0.0146905 -0.0536294 0.00751604 -0.0610826 -0.000211753 -0.0220455 0.085334 -0.0177352 0.0494041 0.000729862 -0.0481158 0.003149 0.0131199 -0.0327978 0.0235306 -0.00842931 -0.00631757 0.00206559 0.0131212 -0.0408367 -0.0426313 -0.00253463 0.0193207 0.0133852 -0.00714224 0.0523498 -0.00165747 0.0110573 0.0709547 -0.000348746 -0.0860188 0.0244662 0.0226243 -0.00700898 0.0598182 -0.0283839 0.0190789 -0.033073 -0.00373432 0.00904746 0.0564082 -0.0158632 0.0156234 0.0614465 0.0277655 0.0269033 -0.0255101 -0.00310616 -0.0295954 0.000446618 -0.0268383 -0.0203493 0.0139361 -0.0268626 0.0200577 -0.00671721 -0.0576255 -0.00392573 -0.00177163 0.0232371 0.0333012 0.000879546 0.0168874 -0.0525005 -0.0318438 -0.0222366 0.0560229 -0.0125855 -0.0118124 -0.0516043 -0.0485693 0.0533243 0.00433504 -0.0167654 0.0179898 0.004684 -0.00850512 -0.0389062 -0.0530143 -0.0166242 0.00467975 0.0368011 0.0420544 0.0526175 -0.00224972 -0.0149154 -0.020401 0.0128684 0.000449741 0.0222112 0.065677 -0.0233727 -0.0103123 -0.0459087 -0.0502845 0.0211557 0.0153869 -0.00645242 0.0108518 -0.000634433 -0.0324187 -0.02165 -0.00968547 -0.0749459 -0.0199769 0.00440728 0.0290566 -0.0356139 -0.0711792 0.0194921 -0.0139275 -0.00270122 0.0450108 0.0310775 0.00824548 0.0107429 -0.0491159 0.0035996 0.00691125 -0.0857361 -0.00846621 -0.02187 -0.0294432 0.0188679 0.0297437 -0.0281654 0.0315323 0.00660774 0.0124176 0.00209107 -0.0114689 0.0215442 0.0186188 -0.0457697 -0.0310854 0.0783221 0.0430507 -0.0445304 0.00315048 0.0145861 0.0166419 -0.0450051 -0.0575711 0.0712231 -0.0256317 -0.00653879 0.0482916 0.0458623 -0.00780019 0.0338193 -0.000806903 0.0112979 0.0396268 0.0484724 0.0342486 0.0354303 -0.0174205 -0.013815 0.0462705 0.00297776 0.0116246 -0.0117261 5.04037e-05 -0.0284807 0.0298711 -0.0151944 0.022053 -0.0146693 -0.00124007 0.0703186 -0.0555508 0.0151583 -0.0161397 -0.00886692 -0.0113518 0.0778237 0.0698666 0.0282585 0.0550243 0.000825127 -0.014434 -0.0356322 -0.0646983 -0.0720431 -0.0212559 -0.0225712 -0.0224725 0.0148353 0.0441411 0.0541217 -0.0611004 0.0252854 -0.0426563 0.0497759 0.0390497 -0.0669911 0.00354508 0.00502229 -0.00757428 -0.0106064 -0.00502825 -0.011993 -0.0424653 0.0045951 -0.0115183 0.0408417 0.0309204 0.0315263 -0.026928 0.0303272 -0.0085878 0.0194663 0.0228587 -0.024441 -0.0305443 -0.0411995 -0.00988847 0.0393799 0.0176825 -0.0207322 -0.034543 0.00416361 0.0150714 0.0148983 0.0538718 -0.0422126 -0.0116297 -0.00172559 -0.0310218 0.038324 0.0205401 -0.0495503 -0.0610692 0.00953757 0.0300182 -0.0627713 -0.032857 0.0412729 0.0112014 0.039263 0.00960472 0.0376873 -0.00543892 -0.0180215 -0.07439 0.0132258 -0.00278772 0.0327727 0.0507189 -0.0173932 -0.0817202 -0.000791129 0.0108454 0.0310158 -0.0273231 0.00557348 -0.0231956 0.00849578 -0.0203777 -0.0580433 0.00993 -0.0199749 -0.028024 -0.00720975 -0.0274891 0.0738194 0.00926292 0.0386854 0.036034 6.16545e-05 0.0590684 -0.02979 0.00575067 -0.0186848 0.00277284 0.0476958 -0.0128663 -0.0157212 0.0163599 0.0179836 0.0462091 -0.0222968 -0.0284924 -0.0396882 0.0070328 0.00876526 0.0157886 0.0355398 0.0315571 -0.00730828 -0.00723508 0.00826888 -0.0193086 -0.00820467 0.00820214 0.0168376 -0.0289194 0.0200649 0.0577397 0.0339975 0.0239932 0.0429481 0.0579279 -0.0459366 0.034628 -0.0225418 0.0614384 0.016283 0.0108527 -0.0679879 0.0543838 -0.029015 0.00297214 0.0331398 0.00282599 -0.0301972 0.00561808 0.0356153 -0.0669743 -0.0670291 0.00837236 0.00413427 0.0231343 -0.0033916 -0.00195604 -0.0342416 0.0305456 0.00723524 0.0176076 -0.0803246 0.00619215 0.0117495 -0.0383713 0.0512049 0.0127116 0.0622029 0.0180771 0.040048 0.056184 -0.0237591 -0.0652638 0.0339866 -0.0210677 0.0163505 -0.0211695 -0.000437984 0.041719 0.0234345 -0.050318 0.0263448 -0.0167478 -0.0497889 -0.0254986 -0.0148521 -0.0482995 -0.0363205 -0.00101924 -0.0307079 0.0438473 0.0132589 -0.0221237 0.0552878 0.0348363 -0.0155449 0.030029 -0.0404191 -0.000768143 -0.0625198 0.0234466 -0.044195 -0.0732674 -0.0104727 -0.0619717 -0.0214915 0.00746494 0.000397766 -0.0278196 -0.0175376 0.0411217 0.0236183 0.0128411 -0.0218936 0.0700415 0.00228796 0.00938293 0.0407595 -0.0439146 0.0172025 0.0780108 0.0367976 0.030606 -0.00385709 0.00622691 -0.0461166 -0.016662 0.0352819 -0.0365768 0.00987553 0.0254664 0.0611878 -0.0131621 -0.0387639 0.00315848 -0.0320971 0.000961436 -0.045296 -0.0195462 -0.0133636 0.0146298 0.039953 0.00753743 -0.0106287 0.0249839 -0.0506015 -0.0365313 0.0279035 -0.0355133 0.0784039 0.00738741 -0.0326132 -0.0327971 0.000232633 0.0169365 0.0105791 0.0468353 0.0413626 -0.0281937 0.00119337 -0.0243353 -0.00379845 -0.0331787 -0.0142047 0.0317137 0.0318792 -0.0511652 -0.0033389 -0.000616151 -0.0166035 0.0345395 -0.00326403 0.0487574 0.0565278 -0.0562531 -0.0257834 -0.0673377 -0.0553161 -0.0290133 0.0226475 -0.0275139 -0.0499165 0.0640319 0.00387057 -0.084318 0.0201678 -0.072721 0.0576846 -0.0536248 -0.02835 -0.00692152 0.0243783 0.0494523 -0.0452901 -0.0280613 -0.0417566 -0.0247647 0.0447681 0.035121 -0.0147109 0.0285101 -0.0186717 0.0175672 -0.0687886 0.027143 -0.0565275 0.0107934 0.0304029 0.0168134 -0.00282019 0.00651797 -0.00783792 0.00943649 -0.074981 0.0357756 -0.0609379 0.0454111 0.00116389 -0.0280613 -0.0289728 -0.037683 -0.0188467 0.0164263 0.0745304 -0.0463077 -0.00845584 0.0304778 -0.00782614 0.0405552 -0.0164078 0.0208886 -0.0187878 -0.00443801 0.0411977 0.0401968 -0.0857679 0.0631908 -0.00639504 0.00463233 0.0140686 -0.0221366 0.0266781 -0.0570523 0.00469779 -0.000300075 0.0306049 0.0585044 0.0673497 -0.0083663 0.0688995 -0.02371 0.034083 0.0142104 -0.0102738 -0.0277277 -0.00387689 -0.0548955 0.00559995 0.0216192 -0.0399912 0.0441277 0.063391 0.0194999 0.0545965 0.00339525 0.0543094 0.00927825 -0.0519129 0.031704 0.0180327 -0.0361857 -0.037651 0.0352204 -0.0331397 -0.0078775 -0.017764 0.0108318 0.0140301 -0.0342043 0.0811651 0.0151706 -0.0146571 -0.0108306 -0.00271509 0.0367266 -0.0296698 0.0587472 -0.0279104 0.0345889 -0.0108578 -0.0219363 -0.000960273 0.00195018 0.0512817 0.0253175 0.0225374 0.0235458 0.054766 0.000862281 0.00674081 0.00463924 -0.010967 0.00880716 -0.00950716 -0.00861162 0.0200564 -0.0393648 0.0373319 -0.0667432 -0.0661207 -0.00267773 0.0330676 -0.0532659 0.0444022 -0.019711 0.0272397 -0.00397529 0.0678981 -0.0199253 0.0277903 -0.0648501 0.0125793 -0.0416921 0.0108802 -0.0380198 0.0038116 -0.0226555 0.0665577 0.040234 -0.0408917 -0.0280657 -0.0550183 0.00333983 -0.0229188 -0.0404239 0.0635188 -0.0175042 0.0157843 -0.0333845 0.0154341 0.0444388 -0.0227495 -0.0430549 0.0574135 -0.0196575 -0.0523814 -0.0546462 0.0433389 -0.0885394 -0.0477523 0.00368811 0.0180445 0.0150485 0.0025231 -0.0426988 0.00998433 -0.00740692 -0.0362196 0.0594826 -0.0356756 0.0477318 0.0469096 0.0241642 0.0407467 -0.00263568 -0.0467722 -0.0163244 -0.0283002 -0.0257815 -0.0246827 -0.00734053 0.0026528 -0.034184 -0.0134785 -0.0218929 0.0333363 0.0357468 -0.0159649 -0.0611227 -0.0564074 -0.0231708 -0.0381638 0.00383735 -0.0417283 -0.0246709 -0.046003 0.032637 -0.00314462 -0.00940682 0.0291224 -0.0178502 0.0736745 0.0764463 0.026517 0.00219943 0.037147 -0.00706706 -0.0111617 -0.0293067 0.0188023 -0.0151425 0.050294 0.0214927 -0.0622484 -0.0419196 -0.0449981 0.0632919 0.000815955 -0.0381687 0.0182504 0.00409677 -0.00028404 0.054668 0.0125864 -0.0443711 -0.0181506 -0.000342566 0.0249482 -0.0340058 0.0361765 -0.0148245 0.0041086 0.0690499 -0.0264391 0.0112156 -0.086916 0.0239058 0.0396438 -0.0426246 -0.0241198 -0.0257271 0.0388598 0.0269571 0.00484878 0.00538907 -0.0085759 0.00489005 0.0443635 0.0165217 0.0964846 0.0253409 -0.0246776 -0.00711236 0.0152055 -0.0188339 0.0476384 -0.0458093 -0.00152889 -0.00811205 0.00206619 -0.0163839 -0.0809224 0.0504808 -0.0252665 0.0171144 -0.0177799 -0.0501155 -0.00901424 -0.00220878 -0.00316734 -0.0175746 0.0416681 0.0206088 -0.0378434 0.0128584 -0.00188291 -0.0138161 0.0242094 0.0425028 0.0152298 -0.00863476 0.00844448 -0.0196448 -0.0504205 -0.0116166 0.0590337 -0.0206652 0.00714351 -0.046704 0.00823235 -0.0355998 0.030133 -0.0108872 0.013383 -0.0127558 -0.0155416 0.138148 -0.0178997 0.0181321 0.0556519 -0.0217641 -0.00607144 0.00884031 -0.00682435 0.0582594 0.0214931 0.0339234 -0.00530125 -0.0171624 0.0531035 0.0268583 -0.0135251 0.0162443 -0.0385616 -0.0177492 -0.0457026 -0.0514251 -0.0390205 0.0296064 0.00266238 -0.0117059 0.042794 0.0227974 0.0273761 -0.0309488 0.0302255 0.00852797 -0.00175722 -0.0167247 0.0078451 -0.0200399 -0.0420424 -0.0203457 0.0237155 0.0747406 -0.0548964 -0.0218477 -0.0188645 0.0116891 0.00556074 0.00318781 -0.0464135 0.0513337 0.0122283 0.0313971 -0.0436799 0.0619306 0.0540693 -0.0141323 -0.00256901 0.0440859 -0.00515407 0.0326924 -0.0393886 0.0283306 0.00933068 -0.00488752 0.0336356 -0.0396769 -0.0803059 0.0532006 0.0209515 -0.0434207 -0.000382045 0.0107908 0.0217062 -0.0382591 0.0065152 -0.0544188 -0.0538713 0.0328513 -0.0267114 -0.0343795 0.00252189 -0.0395386 0.0269607 0.0128829 -0.0508203 0.0210985 -0.0109503 -0.00115795 -0.0120813 0.0136706 -0.0120616 0.0177922 0.0156378 -0.00537366 0.000567439 -0.0672746 0.0359864 -0.00134414 -0.00303977 -0.0288338 -0.0215508 0.000625775 0.0154344 -0.00975815 0.026136 -0.0223285 -0.0183449 -0.0340505 0.00133699 -0.0177411 0.0210426 0.0194904 -0.027595 0.0266631 0.0247141 -0.00647938 0.0412029 -0.0208897 0.0175272 0.084687 -0.0107227 -0.00696159 -0.0248789 0.0423558 0.0943462 -0.0226147 -0.00168131 -0.0356271 -0.00784322 -0.0314641 -0.00942958 0.0385781 -0.0671513 -0.0779007 -0.00848134 0.00847397 0.0276171 0.00727981 0.00338436 0.00853367 0.00544126 -0.028587 -0.000545668 -0.0259991 -0.0177781 0.0587953 -0.0228708 0.0604724 -0.053059 0.0191616 -0.0222064 -0.0305544 0.00022216 -0.0143784 -0.0293122 -0.0108834 -0.0135255 -0.0109292 0.0405198 -0.00931785 0.000343378 -0.0131539 0.01673 0.0633421 0.03996 0.0440413 -0.010884 -0.0406174 -0.00931425 -0.0326715 0.0458415 -0.0371352 -0.0322126 0.0534043 -0.0291858 -0.0153682 -0.0175316 -0.0231929 -0.0126353 0.00827964 -0.0040111 -0.0155021 -0.0156171 -0.0345758 0.00350928 0.0114655 0.0424316 -0.00639245 -0.0280425 0.00250134 -0.0371729 -0.01771 -0.0179601 -0.0352752 -0.0358719 -0.0343753 -0.038442 0.0224039 0.046664 -0.0120164 -0.0172343 0.0026679 -0.00655027 0.0227101 -0.0563235 0.00777886 0.0091785 0.011088 -0.00689272 0.0136965 -0.0198498 0.0110171 -0.0137714 -0.0276874 -0.0430276 0.0606265 -0.0203066 0.0235048 0.00101695 -0.0274121 -0.007861 -0.0453364 0.0119926 -0.0255094 0.0175249 0.029949 0.0093277 0.0065468 -0.00111126 0.0140102 0.0128881 0.00161517 0.071613 -0.0974292 0.0461118 -0.0686936 0.0091927 -0.0204468 0.0007159 -0.0127442 -0.00132447 -0.0690906 0.0999611 0.0317424 -0.0244652 -0.0531016 -0.00795108 0.027855 -0.0514844 0.0365339 -0.0115648 0.00534921 0.0353198 0.0444215 -0.00294572 0.0242517 0.0108452 -0.00981724 -0.0557897 0.0458912 -0.00486437 0.0109459 0.0503852 -0.0523484 -0.0213903 -0.0137903 0.0601454 -0.00335362 0.0238385 0.0289093 0.00200473 0.00262331 0.00800261 0.00806952 0.0077028 -0.0220817 0.0239747 -0.0225785 0.0415629 0.0247902 -0.0103317 0.0209789 -0.0110636 -0.0328785 -0.0716344 0.00802294 0.0170316 -0.0318122 0.0105606 0.0102773 0.0375353 0.0347282 -0.00938891 0.038986 -0.0233434 0.00963321 0.0219012 0.0207236 0.0108966 0.00832458 -0.0182235 0.060333 0.076911 -0.0258504 0.0139973 -0.00626395 0.00506246 0.024988 -0.0149745 0.025533 0.0433699 -0.0377225 -0.00737673 -0.0577458 0.0560253 -0.0502868 -0.00227832 -0.0717288 -0.00718828 -0.0414971 -0.0725261 0.0371038 -0.0418656 -0.0507999 -0.0314297 -0.0230229 -0.0195928 -0.0789043 0.0180943 -0.00566522 0.0119937 0.0500692 -0.0251784 -0.0219561 0.0111023 -0.0449104 0.0372546 0.00579743 0.0325463 0.0534743 -0.0340387 0.105222 0.0338478 0.0276256 0.0382635 -0.0109481 -0.0484481 -0.0147203 -0.070675 -0.00999518 0.0051625 -0.00443053 -0.0517849 -0.00882161 -0.0377477 -0.0424599 0.0128001 0.0368051 -0.0307371 0.0222443 0.0342041 0.0161507 -0.018982 0.0141517 0.0378508 -0.0373744 0.0270815 0.00935692 -0.0279175 -0.00594135 0.0445712 0.0116733 0.0395564 -0.00188837 -0.04257 -0.0201225 0.0339008 -0.0459295 -0.0196768 -0.0234631 0.0127761 0.0119653 -0.0484612 0.0369987 -0.0663098 0.00629281 0.0286467 -0.0213748 -0.00709635 0.00442468 -0.0336068 0.0045149 0.0023909 0.0291525 -0.0466617 0.0436494 -0.0341052 0.0116541 -0.035087 0.0180139 -0.0430729 -0.0329646 0.0789788 0.036416 0.0121357 -0.115979 -0.020574 0.0642705 0.0289018 -0.0196958 0.0433834 -0.0869653 0.0355956 0.0187365 -0.0537795 -0.0214334 0.0386451 -0.0036285 0.00993236 -0.0161194 0.0471336 -0.0112671 -0.00202988 -0.0534348 -0.0431019 0.00499476 0.0588992 -0.00483929 -0.0305453 -0.00130842 -0.0405695 -0.0415248 -0.0880508 0.0167457 -0.03136 -0.0351314 0.00222859 -0.0596485 0.053874 0.00890696 -0.0619598 -0.0571119 -0.0484069 -0.000565396 0.0390261 -0.00562916 0.040846 -0.0274736 0.0144585 0.00887885 -0.00454614 -0.0151869 -0.0996305 -0.0460376 0.00564781 -0.0241755 -0.0382869 -0.0409811 -0.000570351 0.018776 -0.0107223 -0.00466193 0.0138186 0.0010007 -0.0164246 -0.0767314 0.00403523 0.0295707 -0.0146798 -0.014412 0.0474681 0.049672 0.0077154 0.0267561 0.0382493 -0.03998 0.000169391 -0.00460714 0.00943865 0.0106071 0.0590861 -0.0260466 0.00208225 0.0169517 0.0386217 0.0199585 -0.00166236 0.0326976 0.044282 -0.00767037 0.00979119 -0.0014204 -0.0602305 0.0348881 0.05109 -0.0432929 0.0538435 0.00457505 0.00411167 0.00629054 -0.0197229 -0.00549848 -0.0047367 -0.0015111 -0.0115199 -0.0269739 -0.0151674 -0.000971397 -0.0250972 0.0138677 0.00807133 -0.000538715 -0.0290043 -0.0230255 -0.0484124 0.0169418 -0.00745387 0.00956069 0.000946734 -0.0633499 -0.02351 0.0153985 0.022589 -0.0210422 -0.00879233 0.0434109 0.0324915 -0.0238767 -0.0188304 0.00390042 -0.012972 -0.00585206 0.00228327 -0.0288035 -0.0232691 -0.0152924 0.0256323 0.0183924 -0.0783547 0.00703722 -0.023188 -0.00174816 -0.0388537 0.025961 -0.0362324 -0.016108 0.0341288 0.0039431 -0.0319864 -0.0238736 0.0183398 -0.0789375 -0.0042622 -0.00475351 0.0198162 0.0120812 -0.0508794 -0.0371045 0.0221539 0.0628186 -0.0197133 -0.0186533 -0.00212619 -0.00916482 -0.0342892 -0.0297352 -0.0612638 0.085709 -0.07247 0.0328023 -0.067255 0.0417058 0.0094649 -0.0180234 -0.0803654 -0.00211471 0.00926512 0.0462817 0.0419802 -0.0671087 -0.090002 0.040006 0.0183654 -0.00247053 -0.0428197 0.000397131 0.0442374 -0.106101 -0.027088 0.0497801 0.00977938 0.0218042 -0.00706948 -0.0277373 0.0362627 0.0951026 0.0103441 -0.0254056 0.0292043 0.000396242 -0.00726203 -0.0607937 0.00271381 0.0190506 0.0140311 0.0319054 0.0299249 0.0141416 0.0337843 -0.0487918 -0.00713006 -0.0473147 0.0152745 0.0684925 0.0437659 0.0109 0.0442938 0.0717221 -0.00848452 -0.0039671 0.058265 -0.0471516 -0.00195053 -0.0217733 -0.0356805 -0.0238136 0.0732781 0.025858 -0.000428133 0.0521774 -0.0296569 0.056217 -0.0471332 0.0045348 0.0278947 0.0355791 -0.00407299 0.0499893 -0.0228101 -0.0231396 -0.018307 -0.0482202 3.44113e-06 0.00432049 0.0191797 -0.0361875 -0.0264235 -0.0265906 -0.0671878 -0.00140847 0.0359994 -0.00722903 0.0635474 -0.0236899 -0.0287604 0.0200114 0.00595993 -0.015805 -0.0333269 0.0253184 -0.0307461 -0.00482294 0.0337377 -0.00772836 -0.0114553 -0.0462716 -0.0317089 0.0170423 -0.0433699 0.00743912 -0.0129866 0.0327453 0.0268168 0.0153507 0.0333561 0.052387 0.00317071 -0.0500038 -0.0114972 -0.0250315 0.0474909 0.0335463 -0.0686795 -0.00668002 -0.0152521 0.000551693 -0.00896831 -0.050191 -0.0135992 0.0388079 -0.00855898 0.00280454 0.0606859 0.0532006 -0.0307874 0.0078435 -0.00224756 -0.00258891 -0.030379 0.0569366 0.0474557 -0.00370231 0.0410681 -0.0532495 0.0072203 0.0280114 0.00425882 -0.00528751 -0.0255952 0.00980502 0.0220032 -0.00854939 0.051677 -0.0192539 -0.020082 -0.0454815 0.0381691 0.0198629 0.0175989 0.0310898 -0.0377774 -0.00697689 -0.0256541 0.0572296 0.00846071 0.0318249 0.0223619 -0.0158651 0.0204522 -0.0137602 0.0228553 -0.0174131 -0.000849943 0.0204257 0.0482376 -0.0182436 -0.0140198 -0.0159611 -0.000231402 0.00928769 -0.0118691 -0.035137 -0.0726272 -0.0185204 0.0163205 0.0274332 -0.0338616 -0.0178303 -0.0151181 0.0504052 0.00227894 -0.0170414 0.0099728 -0.0173495 0.0501008 -0.0411423 -0.0245673 -0.00359459 -0.0509347 0.00778494 0.0162138 0.0211957 0.0114938 -0.0580332 0.00302481 -0.0421917 0.0477025 0.0324308 -0.0314358 0.00663403 0.0849976 0.0584959 0.0677191 0.0233664 0.0315029 -0.0086776 -0.0309355 0.028194 0.0553901 0.0474313 -0.0289736 0.000834072 0.0132996 0.0161037 -0.0305616 -0.0167523 0.0299793 -0.0117293 -0.00907806 -0.0102153 -0.0214988 0.0286499 0.00559061 -0.019234 -0.0179676 -0.0504102 -0.0563866 -0.0279372 0.0717901 -0.00818887 -0.0343467 0.018599 0.0246906 0.00934627 -0.0705533 -0.0340939 -0.11069 -0.0174174 -0.0156416 -0.0610274 0.0450839 -0.0266402 -0.0302731 -0.0334252 -0.0155848 0.0188353 -0.0377974 0.0556727 0.00390197 -0.00389145 0.0612378 -0.0115165 -0.010903 -0.00103374 0.00776461 -0.0273741 -0.0472683 -0.0160238 0.0626588 -0.00754582 -0.0621012 -0.00089845 0.00621607 -0.0129474 0.0105129 0.0936793 -0.00766943 -0.0243717 0.0387617 -0.0139967 0.0482588 -0.000368092 -0.0016534 -0.0294867 0.0651423 -0.0371638 -0.0475572 -0.00859084 -0.00626008 -0.00172807 -0.0287655 -0.0644325 -0.0008069 -0.0525061 -0.0299793 0.0196634 0.0303851 0.00826628 0.025533 0.0225596 -0.0459524 -0.0630069 0.0146187 -0.0254778 0.0105322 0.00103591 0.0397236 -0.0248409 -0.0350263 -0.0292559 0.0279454 0.0207365 0.0501812 0.00160799 -0.00800855 -0.0404787 0.0536594 0.0172826 0.0450796 -0.0550201 -0.0228906 0.00848183 0.0500901 0.0218673 0.0296353 -0.0670362 -0.0241033 -0.0479511 0.0143825 -4.05595e-05 0.0415918 -0.0355036 0.080384 -0.0310801 0.0116424 0.00855836 -0.0086854 0.00324051 -0.0067244 -0.0366498 -0.00104886 0.0262562 -0.0486665 0.017973 -0.00876208 0.0364096 -0.0285614 -0.00755114 -0.00731842 0.0195195 -0.00626545 0.0637031 -0.0239902 -0.0451962 0.0551305 -0.0381431 0.0180235 0.0212363 0.0243237 -0.00565256 -0.0223628 0.00859671 0.015831 -0.0179123 0.0972238 0.01478 0.0147056 0.025065 0.00872811 0.0554528 0.0504395 -0.00869101 -0.0101796 -0.0355171 0.018519 0.0426902 -0.0487402 0.00422817 0.00844551 0.0604782 0.0567766 -0.00403405 0.0205261 -0.00583875 0.0531181 -0.0461404 -0.0809016 0.0271019 -0.0376072 -0.0064088 0.0242655 -0.0203858 0.0103086 -0.0321257 -0.014639 -0.0502605 0.0106039 -0.0115836 -0.0377417 -0.0401871 -0.0553171 -0.04607 0.0473318 0.0398182 0.0467109 0.00396585 -0.0174053 0.0160715 0.0484072 -0.0776322 0.0660162 0.0607265 0.00372936 -0.00584789 0.0561239 -0.0374835 -0.0171193 -0.0190271 -0.00416255 -0.0114362 -0.0310335 0.0377666 -0.0106693 0.0279627 -0.0562266 -0.0646848 0.0230786 -0.00361842 0.0631959 -0.0280919 -0.00755252 0.0432794 -0.0445329 -0.000415187 0.0367441 0.0447643 0.022413 -0.00329089 0.0643643 -0.00310497 0.0401419 0.00762865 0.00173304 0.00336459 -0.0146681 -0.0211287 -0.0193723 0.00044037 -0.0262485 -0.0276677 -0.0663009 -0.0117911 0.0119516 -0.0443555 0.0345785 -0.0533977 0.0944908 0.0196808 0.0130136 -0.054441 0.0616271 0.0037542 -1.7208e-05 0.0383991 0.00976594 -0.0140917 0.0151677 -0.044116 0.0204492 0.00771727 0.0253273 0.0201418 -0.0441334 -0.0224176 -0.0111664 -0.0520834 -0.0191373 -0.0178108 0.0157568 0.00212955 -0.0171005 0.00361393 0.0113351 0.0166741 -0.0344989 0.00341902 0.0144523 -0.058173 -0.00911266 -0.0399513 -0.00934521 0.040912 0.00998626 0.0435015 -0.030154 -0.00738917 0.0127871 -0.0162424 -0.0597172 -0.0431377 -0.0359262 0.00304197 -0.0333871 -0.0508394 0.037388 -0.0221897 -0.0129519 -0.0206052 0.0106695 0.0202349 0.011431 -0.000729691 0.0491066 -0.0132548 0.0373491 0.0445567 0.0185967 -0.0640956 0.0793935 -0.00590571 -0.0158913 0.00193352 -0.0137647 0.0224963 0.0192009 -0.0289896 0.00854092 0.0113047 0.0380384 -0.0310712 -0.0603653 -0.0160519 -0.0105283 0.0725981 -0.0533445 0.0149207 0.0389413 0.0202643 -0.0275207 0.0229737 -0.0295719 -0.00606672 0.0587576 0.0160513 -0.00380146 -0.0209258 -0.0614098 0.0144193 -0.0175704 -0.0411833 -0.0574585 -0.0286491 0.0763824 0.0236786 -0.00514776 0.0540515 -0.0117585 0.00636257 -0.030353 -0.0643945 -0.00978978 -0.083354 0.0368264 0.00477784 -0.0191633 -0.0256859 0.0396389 0.0291776 0.0516185 0.0327601 -0.0326003 0.00773146 0.0385646 -0.0362198 -0.0207597 0.069838 0.023965 -0.00325861 0.0103622 -0.0108195 -0.058799 -0.0213723 -0.0208734 -0.0201152 -0.0137996 0.0435144 0.0181436 -0.0230275 0.0515423 -0.0153126 0.0198579 0.00566157 0.00140329 0.0092987 -0.0555263 -0.0814505 -0.0489796 -0.00716766 -0.0208169 -0.0274484 0.0108517 -0.000169064 0.019625 0.0293773 0.00444179 0.0278746 -0.0358629 0.0444053 -0.0148761 0.077556 -0.0296276 -0.0202437 -0.0104408 0.00173984 -0.0465026 -0.00296727 0.0360168 -0.00592432 0.00416905 -0.0211599 0.0207174 -0.00859328 0.0449709 0.000194279 -0.0495337 -0.00316713 0.0429371 0.00346166 -0.00782608 0.0427662 -0.088672 0.0376292 -0.0180968 0.0163605 0.0666863 -0.00540949 0.0234937 -0.0201194 -0.00350998 -0.0459955 -0.00500857 -0.0540226 -0.0168743 -0.0217144 0.0182599 0.0786539 0.00317051 0.0195908 -0.0717438 -0.0421528 0.0193468 -0.0574586 0.0719597 0.00529024 -0.0332752 0.0338811 0.0304302 0.0258596 -0.0457058 0.000144383 0.023794 -0.022766 -0.00936032 0.0838017 -0.03447 0.0389969 0.0269989 0.0342208 -0.0264526 0.0821186 -0.00403028 0.00245137 -0.0434459 0.0159494 -0.00956736 -0.0143546 0.0292682 0.000250626 0.0407856 -0.0454507 -0.0228367 -0.0217657 0.0112294 -0.0374031 0.0153424 -0.0586854 0.00810052 -0.0382979 0.0162475 0.0166396 -0.0151614 -0.0403438 -0.014349 0.0417016 0.0183889 -0.0149517 -0.00580443 0.0141519 0.0212378 -0.049583 0.0287206 -0.0648199 0.0168606 -0.0196762 -0.0412809 -0.0340089 0.0234492 -0.00476929 0.00859487 -0.0427246 0.0267529 0.0031341 0.0556741 -0.0080303 0.019634 -0.0183172 0.00775347 -0.0221067 0.00173406 0.00396392 0.0456552 -0.0458088 -0.0657869 -0.0485075 0.0376294 0.0188108 -0.00559515 0.00789059 0.0279099 -0.0126101 0.0139046 -0.0157419 0.0587201 0.0208563 -0.00549599 -0.0540099 -0.01761 -0.00910908 0.0210058 0.0142643 0.000468577 -0.00171119 0.0422609 -0.00596838 -0.0417655 -0.0299042 0.00914298 0.000985693 0.0438074 -0.0432625 0.039897 0.0136621 0.0039675 -0.0155978 -0.0394311 0.0877844 0.0235554 -0.027481 0.0992858 -0.00299033 -0.00914946 -0.0300663 0.0152959 -0.00355774 0.077679 -0.0203831 0.0403671 0.0332556 0.0059407 -0.0166688 0.00431625 0.0163947 0.0119624 0.0285219 0.050207 -0.0199934 0.0708038 -0.0389128 0.0793168 0.0040547 -0.0124075 0.0208727 -0.0627017 0.0169287 -0.0426365 0.0214561 0.0581673 0.0185223 -0.016 -0.0547447 0.0450037 -0.0151661 -0.0266134 -0.01444 -0.0264648 -0.0216644 -0.0385571 -0.00739809 0.0413509 -0.0302528 -0.0471523 -0.0333874 -0.0291463 0.0329853 0.0623185 0.00116824 -0.0116375 0.00391133 -0.0537096 -0.0742385 -0.0053352 -0.0131769 -0.025919 0.0364396 0.0583109 0.0706982 -0.00886288 -0.0078185 0.0186817 0.0303636 -0.00503384 -0.00995432 0.0199189 0.00649535 0.0396061 -0.00983934 -0.0225391 -0.0102732 -0.0625458 -0.00103363 -0.00560998 -0.0146171 0.0163485 -0.00527726 -0.00408722 -0.0232369 -0.0517305 0.00406184 0.0128337 -0.0443412 0.00137657 0.0728505 -0.0285477 -0.012887 0.00560357 -0.0104669 -0.0303847 -0.0392189 0.000291118 0.0323508 0.00668798 -0.00762341 0.0420464 0.0445878 -0.0316351 -0.0807579 0.014629 0.0276619 -0.0258993 -0.0246592 -0.0911147 -0.0414976 0.0589812 -0.0248618 0.0182271 0.00234389 -0.0249946 -0.0336537 0.0140893 -0.0965913 -0.0360632 -0.0316283 -0.0444333 0.0348586 -0.0791783 0.00591762 -0.0325688 -0.00567047 0.0243389 -0.0165332 -0.0244562 0.0452242 0.00421933 0.0803979 0.0171267 -0.00384226 -0.0146276 0.0142975 0.0201327 -0.012615 -0.0262558 -0.0405806 -0.0315693 -0.026935 -0.0414036 -0.0241442 -0.0262938 0.0942757 0.0563555 -0.0916859 -0.0602505 0.0110954 0.0239238 -0.0246417 -0.00750686 -0.0585668 0.0544929 -0.0695719 -0.0188661 0.0642292 0.00786632 0.00129938 0.0103396 0.00505807 0.0320695 -0.0386286 -0.0642215 0.0319669 0.0494015 -0.0283008 -0.053732 -0.0129446 -0.0247578 -0.0353574 -0.0969896 0.0279257 0.0124184 0.0210369 0.000979386 -0.0543403 0.0457288 -0.0217847 0.0179509 0.060036 0.0292565 0.0233321 0.0225763 0.0465081 0.0295818 0.0497076 -0.0432819 -0.0348717 0.0396328 0.0255789 -0.0217647 0.0141038 -0.0020528 0.0261025 0.0633429 -0.0242628 0.041033 0.0001657 -0.0103017 -0.00961031 -0.0163522 -0.0247734 0.0623193 -0.0119457 0.0411564 -0.0202591 -0.0024039 0.0550465 -0.00407286 -0.0720542 -0.0548827 0.0795078 -0.0046871 -0.0469544 0.00198242 0.000358145 0.0510856 0.0781119 -0.0257173 -0.00117108 0.0164118 0.0129728 -0.0383846 0.00950924 0.02701 -0.0167946 -0.00743551 -0.00537711 0.0341025 0.0305426 -0.000295092 0.0634502 -0.0308285 -0.077965 -0.0191632 -0.00542492 0.0460379 0.0646276 -0.0323906 0.0724234 0.0200695 0.0089179 -0.0577579 -0.0834523 -0.00586571 -0.0324086 0.0378327 -0.00535678 -0.0153482 0.0374663 -0.0203112 0.00925958 -0.0130824 0.0084065 -0.0403957 0.0161467 -0.0875002 -0.0616684 0.0251856 0.0152289 0.0216943 -0.0365584 0.00615053 0.057942 -0.00971234 0.0267926 -0.0636828 0.0109485 -0.0130055 0.0559066 0.00324667 0.0149277 0.000321013 0.0340229 0.0218921 -0.0191706 0.00744565 -0.0865927 0.0181228 0.071509 0.0169309 -0.00521746 -0.0162323 -0.0207243 -0.023707 -0.00461068 0.0310161 -0.0107823 0.0403511 -0.00580299 -0.0518063 -0.0431784 0.00118477 -0.0869252 0.00694915 -0.0616024 0.0150184 0.000797023 0.0491926 -0.0256849 0.00324701 -0.0445718 0.016608 0.00275318 -0.0158233 -0.0410068 0.0416662 -0.0374297 0.0479064 -0.0286955 -0.0210598 0.0221177 0.00920984 0.0869722 0.0101637 -0.0465485 0.0187166 -0.0205326 -0.0411606 -0.00316101 -0.0821109 -0.048171 -0.00509816 0.0389097 0.0215365 -0.0741457 -0.0521072 -0.0152675 0.0133806 -0.0369275 0.0697446 -0.0277861 -0.0143089 -0.00842188 0.0115275 -0.0124817 -0.0116449 -0.0432089 -0.026516 -0.0154518 -0.0180579 0.0254948 -0.0263638 -0.00496337 0.0544028 0.0449645 -0.0234203 0.0481254 -0.0106244 0.0334168 -0.0477408 0.0356098 -0.0486077 -0.0703285 -0.0365269 0.048656 -0.0610868 0.106786 -0.00104166 0.0315166 0.00401706 0.0691542 -0.0278328 -0.0532423 0.0597725 0.0185931 0.000670351 0.0181466 -0.0411975 -0.0467912 0.0106077 0.0392472 -0.0683816 -0.0623524 0.0237771 -0.0199029 0.0160843 -0.00413279 -0.027287 0.0206119 -0.0200241 0.0227161 -0.00496921 0.0645877 0.0103828 0.028379 -0.0328888 -0.0842497 0.0664737 -0.00685963 0.0392537 -0.0518471 -0.00533761 0.019924 -0.0174232 0.026507 0.0774114 -0.0348315 0.00969146 -0.05722 -0.0450021 -0.00838011 -0.0502125 -0.00483806 -0.00139166 -0.0141701 0.0243439 -0.0159574 0.0619706 -0.0123962 0.0257538 -0.0176379 -0.0117924 -0.0202428 0.00550611 0.0208662 -0.0753563 0.0105153 0.0456139 -0.000802515 0.0175019 0.00918914 0.0377726 0.00989506 0.00937166 0.0461019 0.0144737 0.00622942 0.035696 0.00430675 0.0364433 0.0120299 -0.00417658 0.0134606 0.0214759 0.00600739 0.039142 0.0159147 -0.0202065 -0.0607128 -0.00832602 -0.0775951 -0.00298989 -0.0432417 0.0472729 0.0335392 0.0280228 -0.0296999 -0.0258433 -0.00853013 0.0392538 -0.0339402 -0.0322391 -0.00353874 -0.0392178 -0.0334043 0.0308122 -0.0375725 -0.0134921 0.0366802 -0.00979873 0.00670531 -0.0490135 -0.00233394 0.0444852 0.0009129 -0.00630963 0.000704429 0.0223543 0.0786987 0.0262219 -0.0327829 -0.00943998 0.0112984 -0.0206663 0.0105468 -0.0248995 0.00900023 -0.0101112 0.0128301 0.00927705 0.020017 0.00634487 -0.0116038 0.038103 0.0117717 -0.0534766 0.0586543 0.035303 0.000151757 0.000722089 0.00254294 0.0469446 -0.0086816 -0.00147938 0.0205382 -0.00914628 0.0239932 0.0158387 0.0455123 -0.0317386 0.0108108 0.0283829 0.0643499 -0.0866753 -0.0141304 -0.0167887 0.0760401 -0.0205962 -0.013377 -0.016605 0.020232 -0.0138969 -0.00363889 0.0406903 0.050691 0.0530452 -0.0407726 -0.0467905 0.0781756 -0.0607756 -0.00827601 0.040821 -0.0126653 -0.00561101 0.00257789 -0.00829215 0.00685076 0.0331177 -0.00148546 0.00767551 0.00162779 0.0253391 0.046111 -0.00921143 0.00893432 0.0221673 0.0387842 0.0123026 0.0218417 0.0270871 -0.0119542 0.0263884 -0.0696887 -0.0521433 0.0208496 -0.0150921 0.0954619 -0.0137658 -0.0368835 -0.00989907 -0.0237941 0.00939919 -0.0339697 0.0389984 -0.0151782 0.0358178 0.0313437 0.0177438 0.0485856 0.0111592 -0.015841 0.00102182 0.0268053 0.0352208 0.046484 0.0203659 -0.0132084 -0.00335923 0.0327434 0.0653905 -0.0191569 -0.0261371 -0.0048485 0.025578 0.0133886 0.0552764 -0.01355 0.0405422 -0.0531937 0.00590127 -0.00788602 0.0359915 0.00654268 -0.00982422 -0.0184448 -0.0678073 -0.0463844 -0.0331271 -0.0340456 -0.0441772 0.0480794 -0.0650716 -0.0301382 0.0145143 -0.00664695 -0.0364869 -0.00523985 0.00889852 -0.00193171 -0.00159755 0.0447124 -0.0509663 0.0115139 0.00936511 0.0269898 -0.0178068 0.034851 0.0355918 -0.0833899 -0.028058 -0.0194839 -0.0186799 -0.00823876 0.00160513 0.0320655 0.0702094 -0.040104 0.0265643 0.0350315 0.00181117 0.00059107 0.0573127 -0.0305215 0.0502272 -0.000205121 0.0147709 -0.0160091 -0.0206641 0.0227294 -0.0351745 0.0319916 0.0738112 0.00581899 -0.000643675 0.0156707 -0.0375746 -0.0739782 -0.00987446 0.0124762 0.00698212 0.0364968 0.0165605 0.0462789 0.0731657 -0.00889041 0.0291455 -0.0238461 -0.0240059 -0.0602956 0.000732099 -0.00265728 0.0149772 0.00361141 0.0842258 -0.0190402 0.0636763 0.0369457 -0.0146014 -0.0213868 0.0479038 0.00658941 0.0177496 0.000864636 -0.0193945 0.00194145 -0.0231251 0.0750314 -0.00865991 0.0445776 0.00261657 -0.0471052 -0.0294731 -0.064546 0.0278616 0.0813172 0.00993673 -0.0800929 0.0281573 0.0250924 0.0169307 -0.0625887 -0.0342727 -0.0180607 0.00864829 0.0284955 0.0456605 -0.0138567 0.0521796 -0.0183206 -0.0645804 0.0426695 0.0673611 -0.0401732 0.000373656 -0.028771 0.0517505 -0.0831014 -0.024341 0.00197426 0.0555247 0.00863303 0.0378955 0.0198819 0.058713 0.0556151 -0.0381242 0.0128697 0.0187532 0.0453736 0.0587801 0.0251233 -0.00190783 0.0162085 0.0347327 -0.0150329 0.0556729 0.0322574 0.0271649 -0.0253942 -0.0584989 0.0738225 -0.031038 0.0428906 0.116627 0.00740117 -0.0397206 0.0261926 0.0468274 0.0138902 -0.0510285 0.018428 0.0231717 -0.0525147 0.00308501 -0.00815745 -0.0113515 0.0126278 0.0643462 -0.0205198 0.00324818 0.0145692 0.0222783 0.00429611 0.00837596 0.0475837 -0.089976 0.0384801 -0.00101559 -0.0257263 0.0180191 0.0439549 -0.00951419 0.00867848 0.0554164 0.027262 0.040168 -0.0569724 0.0211666 0.018858 -0.0357484 -4.9669e-05 -0.0241013 -0.0809489 -0.0275013 -0.00664615 0.0287397 -0.0134809 -0.0102591 -0.0154508 0.0196307 -0.00285361 -0.0143051 -0.0376376 0.0153669 0.0266753 -0.0448769 0.0789455 -0.0614917 -0.0126035 -0.0362423 0.00855252 0.0600119 0.0698378 -0.0142655 -0.0248674 -0.0273983 -0.0234632 0.00723523 -0.00307691 0.0494887 0.0125927 0.011403 -0.0414069 0.0439434 0.0525551 -0.0131017 -0.0782067 0.025361 0.0706668 0.019778 -0.00276736 0.0510694 0.035163 0.0119175 0.00972133 0.00859647 -0.00943309 -0.0191177 -0.00997959 0.0145777 -0.035544 -0.0198279 -0.000484185 0.00540328 -0.00629203 -0.0267829 -0.00301678 -0.0416339 -0.0620146 0.0809249 0.0576843 -0.00608474 -0.0211282 0.0334505 0.019708 0.0340584 -0.014718 -0.014737 0.02926 -0.0498951 -0.00344507 0.0148845 -0.0369557 0.0101234 0.0793732 0.00206207 0.0274045 -0.0575086 0.0122532 0.00936272 -0.00412891 0.00797879 -0.0138012 0.0362916 0.0401168 0.0157636 -0.00852559 0.00175851 0.0409391 0.0102725 -0.0122181 -0.0576195 0.00183297 0.0182459 -0.000843139 -0.0206475 -0.0344833 -0.0163025 -0.00812872 -0.0264351 -0.0300035 0.00635514 -0.0292115 -0.00544461 -0.00355818 -0.0655931 0.0368583 -0.0120723 0.04641 -0.0351771 -0.0300016 -0.0223047 -0.0229359 0.0496202 0.00820579 0.0310844 -0.0346238 0.0260238 0.0423899 -0.00120124 0.00990718 0.0411534 -0.0497618 0.0251857 -0.0168261 -0.00606863 -0.000774369 -0.00145118 0.0821537 0.0208325 -0.031075 -0.0653886 -0.0101199 -0.0192252 0.00715689 0.00397255 -0.000374975 -0.00630075 0.0865088 -0.0389395 -0.0479585 -0.0176011 -0.00909577 -0.0287203 -0.0406617 0.0050653 -0.0389643 0.0284256 0.033209 -0.00351394 0.0185642 0.00310231 0.0481959 -0.0881761 -0.0131083 -0.0268683 -0.0646511 -0.00565749 0.00623826 0.0604537 -0.106651 -0.00508484 -0.0430027 0.0462614 -0.00615803 0.0371538 -0.0229972 0.0482026 -0.00826685 -0.00251215 0.00435351 -0.0275021 -0.0209134 -0.0615632 0.0210048 0.0136614 0.0431519 0.0343083 -0.0249144 -0.0191294 -0.0290318 0.0291049 0.0183059 0.0225997 0.010013 0.055378 -0.0276249 -0.010752 -0.0168038 0.050493 0.0463482 -0.00476449 0.0219971 0.0210768 0.00474644 -0.0418283 0.00203954 -0.0525211 -0.0352941 0.00850171 0.0476133 -0.0533683 -0.00430151 -0.0305182 -0.065611 0.00836962 0.00945578 -0.00185749 0.0182656 0.015607 -0.0218252 -0.0218631 -0.00397697 0.0320604 -0.00246593 0.00428031 -0.0675485 0.0192901 0.0540844 0.0343434 0.0223655 -0.0656641 0.0365555 0.0402088 -0.0285501 0.00595891 -0.0317713 -0.00396566 0.0562914 -0.0105143 -0.000175782 -0.0594606 0.0400876 0.0207137 0.0578251 -0.0229982 -0.0290062 -0.0137459 0.0582497 -0.0506502 -0.0224671 0.0164874 0.00906595 0.0170197 -0.0186641 0.00148371 -0.06048 0.00635312 0.0129421 0.038224 -0.00934326 -0.0763232 -0.0260166 0.0511854 -0.0145548 0.0132684 -0.0217336 -0.0538752 0.0048851 -0.0248411 0.0386278 0.0700915 -0.017738 -0.0916175 -0.0260587 -0.0173865 0.0177254 -0.0301632 0.022468 -0.0188765 0.0648948 -0.0681194 0.0187877 0.0414691 -0.00950305 -0.0103514 0.0315857 0.0272013 -0.0317206 0.00294152 -0.0271089 -0.0194766 0.0294127 -0.0236289 0.0697273 -0.0226951 -0.0048467 -0.0831795 -0.022614 0.0338078 0.0184749 0.0230361 -0.00111714 -0.0424498 -0.0749405 0.0140367 0.00990006 -0.032102 -0.0376513 0.028263 -0.00869725 0.0146807 0.0236845 -0.00101655 -0.00675437 0.0362219 0.000230931 -0.00539108 0.0376492 -0.0520623 0.0176787 -0.0462363 -0.0244962 0.0129958 -0.0462082 -0.0557021 -0.0241393 0.0198295 -0.0593745 -0.0226216 0.0136281 0.0195989 -0.0392291 -0.00229631 0.0067293 0.0380507 -0.0291607 -0.0245179 -0.00994557 -0.0528988 -0.0594742 -0.0219149 -0.0395161 0.0158016 0.0104256 -0.099025 0.0540295 -0.00978771 -0.00839765 0.0265479 0.00326667 0.04692 -0.0404077 0.0158796 0.0275285 0.0566819 0.0642041 -0.0234817 0.0324631 -0.00705913 0.0488906 -0.0631616 -0.0318364 -0.0301643 0.0480229 -0.0312954 -0.062482 0.0240441 -0.0578287 -0.0475734 -0.00780617 0.0101639 0.0194816 -0.0270566 -0.0294355 -6.11472e-06 -0.0619895 -0.0290713 -0.0139004 0.0242136 -0.0203069 0.0418584 -0.0191002 -0.0488026 -0.0112616 0.0310129 -0.0595184 0.0347095 0.0293949 0.00467435 0.0532256 -0.0398334 -0.00516438 -0.0204796 -0.0382758 0.0014534 -0.0230612 -0.0127784 0.00929941 0.00562546 -0.0451929 -0.00641264 0.00220221 -0.0141679 -0.00553957 0.0101508 0.0290183 -0.0073407 0.00447116 0.018622 -0.00181486 0.00296332 -0.0354854 -0.0676393 -0.00875197 0.0258208 -0.058473 0.0223047 0.0177962 0.00940786 0.0285865 0.00562635 -0.0350484 -0.0233449 -0.00906812 0.0324158 0.00248186 0.0159369 -0.00179942 -0.0100096 -0.0382687 -0.0170164 0.0375763 0.0588947 0.0263091 -0.00763489 0.007752 -0.0261234 -0.0499639 -0.0218345 -0.0240574 0.0173354 -0.0173581 -0.00930469 0.00100164 0.00818679 0.0362622 0.00464713 0.0127248 0.0115466 0.0635994 -0.00476931 -0.080235 0.0104243 0.0803348 0.0220531 0.0404319 -0.0110243 0.0107072 0.0324728 0.0344051 -0.0104189 0.00253716 0.00396622 0.00869959 -0.0322707 -0.00467166 -0.0401303 -0.00668509 -0.00139692 0.0193959 -0.00849519 -0.0276563 0.031101 0.0128472 0.0156161 -0.0339868 -0.0665562 0.0470565 -0.00263555 0.0392137 -0.00367828 0.0403257 -0.0555782 -0.0162244 0.0503315 0.0183679 -0.0385884 -0.00129372 0.00440148 0.00767175 0.0178822 -0.0151547 -0.0273986 -0.0403769 0.0287816 -0.0185283 -0.0127686 0.036536 -0.0333527 0.0161727 0.0291439 -0.0996889 -0.0785117 -0.0158085 -0.0271508 -0.0221891 -0.00389003 0.0270762 -0.0747398 0.0577585 -0.0371076 -0.0719277 -0.0281849 0.0508647 -0.0352866 -0.054152 0.0335283 0.022849 0.0284727 -0.0240701 -0.00322096 0.0124887 -0.052046 0.0579152 -0.0451916 0.0419569 -0.0140951 0.0198492 -0.00166267 0.0267149 -0.0719688 0.0435116 0.0164611 -0.0229166 -0.0357873 -0.0193565 0.00956446 0.0156227 0.00742691 -0.00881899 -0.0781617 0.00911853 0.0713022 -0.0263853 -0.0180629 0.0283684 0.019937 -0.0672466 0.0130539 0.00272715 0.00362119 0.00379569 -0.10084 -0.000464399 0.02645 0.0240143 0.0232208 0.0109658 0.0308639 0.0620247 -0.0194801 0.0350292 0.0239341 -0.0164497 -0.0432461 0.00982166 0.00672692 0.0180991 0.00811878 -0.0807783 -0.0306017 -0.109225 0.0418025 0.0257232 -0.00714061 0.0626813 0.0106796 -0.0489904 -0.117183 0.0201103 0.0237976 0.00268604 -0.0354087 0.0350532 -0.016072 0.0478693 0.0434669 -0.02229 -0.00298215 0.0159276 0.0472539 -0.0171463 0.0213597 0.0168259 -0.0140683 -0.00676358 -0.00981258 -0.000491432 -0.00836521 0.0309607 0.00807317 0.0306072 0.00696137 -0.0413058 0.00182133 0.0115248 0.017439 0.031186 -0.00825907 0.0278199 -0.0372414 -0.0139634 -0.0139591 -0.0280301 -0.00974564 0.00445262 -0.0499871 -0.0028902 -0.0113468 0.0442974 0.000792775 0.03908 0.00119198 -0.0199425 0.0330311 -0.00912003 0.00814002 -0.0358189 0.0126592 0.0143727 -0.0107635 0.0718241 -0.0619342 -0.00597814 0.0601703 -0.00475479 0.0614828 0.0742189 -0.00983889 0.00165682 0.0078072 0.0159325 -0.0229343 0.0104256 0.0438403 0.0119169 0.0314838 -0.10975 0.0350484 0.0590283 -0.0161843 -0.0119839 -0.0259652 -0.00969357 0.0103432 -0.0245287 -0.0403623 0.0337744 0.0184296 -0.00918257 -0.0338739 -0.0701454 -0.0657121 0.0212548 -0.00627473 -0.00862692 -0.0459084 -0.0167798 -0.0212475 0.0168468 -0.0493167 -0.0454846 0.0127785 0.05564 -0.0048114 -0.0221062 -0.0362008 0.0218053 0.0134566 -0.0143922 -0.0504899 -0.0873226 -0.0191733 -0.0157806 0.0858114 -0.0426528 -0.011274 0.0425465 0.0130896 0.0361402 -0.0234806 0.0390404 0.0184129 -0.00978872 -0.033403 0.0369655 0.0231313 -0.0277799 -0.00725459 -0.0211523 -0.00729403 0.0553595 -0.0273228 -0.0192471 0.00755989 -0.00369977 -0.0151662 -0.0721725 0.058128 0.00789435 -0.0012682 -0.0581467 -0.00375539 -0.0190597 0.00233327 -0.00094541 -0.0441969 -0.00885793 0.0510723 0.0287549 -0.0122358 -0.0160566 0.0126169 0.0815692 0.0383421 -0.0364357 0.0351012 -0.0250151 0.0209835 -0.0138387 -0.0730049 0.0173761 0.0148654 -0.0469965 0.023392 -0.0131016 0.0114286 0.0458368 0.0167307 -0.0153823 0.0171847 -0.0308121 0.0165365 -0.028974 0.0162396 -0.00757929 0.0228301 -0.0192064 0.0330532 -0.0151449 0.0183922 -0.0148959 -0.0259888 0.0616947 0.083809 -0.0114408 0.0147716 -0.0277442 0.00416516 0.0159397 0.0552461 0.0640068 0.00438647 0.0642217 0.0709511 0.0228387 -0.0692225 -0.018728 -0.0234907 0.0140285 -0.0749007 -0.026333 -0.0265572 0.0266465 0.0238979 0.032863 0.0100668 -0.00937599 -0.0638556 0.0049676 0.0111295 0.0753726 -0.0136362 0.00849491 -0.00843663 -0.0125634 -0.0127102 0.00235361 0.019511 0.00980178 -0.0451944 -0.00526371 -0.0296318 -0.0218386 -0.0754367 0.0389402 0.0230698 -0.0238613 -0.0296418 0.015388 0.0240126 0.0219789 0.0711892 0.00849832 -0.049946 -0.0317663 -0.0143991 0.0134426 0.0487357 0.0874477 0.0437946 0.049071 0.00678562 0.0355134 -0.00812643 -0.0170251 0.0216337 -0.0108494 -0.00981841 -0.00677069 -0.0208257 -0.0473025 0.0237461 0.0895039 -0.0231754 0.0641164 -0.0123428 0.0242999 0.0474205 0.0212055 0.0346713 -0.0166884 -0.0052713 0.00095809 -0.0338529 0.00121721 -0.0116143 -0.0473319 0.0228923 -0.0201422 0.0422717 0.0231007 -0.0367823 -0.0637056 -0.00302483 0.0136867 -0.00796633 0.00291936 -0.0075314 0.00996976 -0.0675944 0.00931646 0.0143152 0.0109657 0.0259947 0.00222813 -0.00195709 -0.087381 0.0387252 -0.0485804 -6.2864e-05 -0.0128451 -0.00720663 0.0672412 0.014702 0.0545872 0.017524 -0.0265564 -0.0301648 -0.0103614 -0.0323647 -0.0288895 -0.0444219 -0.0129884 -0.0325849 -0.0206673 -0.024516 -0.0384556 -0.00731126 0.0265791 0.00634027 0.00527919 -0.0274026 -0.0268233 -0.00642724 0.0400584 0.00704618 0.0366206 0.00663165 -0.0513927 0.0421853 0.00969467 -0.0221903 0.020357 -0.0726536 -0.0578141 0.00526716 -0.00941346 -0.0271577 0.00500727 -0.0664077 0.0548325 -0.0229083 0.0187986 -0.0029487 -0.0297324 0.0157659 0.0619019 0.0221084 -0.0611358 -0.0547727 0.00606677 0.00691264 -0.0287591 -0.00324048 -0.0211973 -0.015421 0.00334046 0.0288372 0.0350131 -0.0304412 -0.0157754 0.0308966 -0.0268019 0.014993 0.01125 0.060487 -0.0175761 0.000791135 0.0135396 -0.00408219 -0.044304 0.000643957 -0.0470622 0.028606 -0.0232 0.00839164 -0.00292353 -0.0481371 0.0253908 0.0269028 -0.00356526 0.0257616 0.0071164 0.0230967 -0.0178513 0.0119075 -0.0604841 0.021095 0.0351624 0.0110272 0.0409495 -0.117053 -0.00624791 0.00246688 -0.00515955 0.0303541 -0.0442692 -0.00935325 0.0325146 -0.0335418 0.0546579 0.00161549 -0.0640944 0.00704349 -0.0315244 0.0196803 -0.0378076 -0.0756029 0.0676288 0.0486902 -0.02326 -0.00281962 0.0321239 0.0269819 0.0473658 -0.0166175 -0.00683061 -0.00886024 -0.0351905 -0.0149586 0.0124889 -0.00632339 0.0190987 -0.00475442 -0.00926288 -0.018153 -0.0585532 0.0438913 0.0216719 0.0543702 0.0310005 0.0189908 0.0225102 -0.0118491 -0.0347801 0.0406303 -0.0473732 0.0211471 0.059088 -0.0159802 -0.00172317 0.0196908 0.0167163 -0.0178131 0.0741905 0.0132477 -0.00378084 0.0522505 0.0145889 -0.00247898 0.0459733 0.00192792 -0.0499888 0.0369469 -0.00204605 -0.0169817 0.0242601 -0.0165368 0.00822497 0.0303071 0.0179726 0.0371168 0.00460746 0.0332638 -0.0385518 0.00602646 -0.0256225 0.0290203 -0.00888333 -0.0118113 0.0493246 0.0264731 -0.0216697 0.0209865 0.0400093 0.0218579 0.0135933 -0.0221643 -0.0135657 0.0376893 -0.0393825 0.0336611 -0.0114192 -0.0217015 0.0163841 -0.013082 0.0290102 -0.0966384 0.0124228 0.0329505 -0.00101201 0.0232205 0.0185639 -0.0399865 0.0298425 0.0197438 -0.0317375 -0.0343289 -0.0294269 -0.0179293 0.0235488 0.0695534 -0.0309718 0.00357709 -0.0565025 -0.0232235 0.0129269 0.050691 -0.0141486 -0.0171678 0.0400581 -0.0676016 -0.039415 0.0152367 -0.00587618 0.0218672 -0.0144179 0.0127025 0.050725 -0.032134 0.0181802 0.0182237 0.0524821 0.0203245 0.0289608 -0.0117153 0.00920484 -0.0507201 -0.0109741 -0.00477254 -0.0147092 0.0293389 -0.00721393 -0.00182338 0.0449498 -0.044365 0.0251207 0.00626948 0.0191329 0.0127562 -0.0302128 -0.0104044 0.0276105 -0.00757935 0.0399389 -0.0120476 0.0699367 -0.0147676 -0.0429119 0.0170123 -0.0308008 0.0286402 -0.0327376 -0.0294675 0.0143876 -0.0231225 0.067433 -0.00426243 -0.037593 0.0485287 0.0351726 -0.0554203 -0.0114916 -0.0161657 -0.0583601 0.0398775 0.0515893 -0.0585593 -0.00692478 0.0356258 0.0195335 0.0533082 0.0162043 0.0282372 0.0391178 -0.0158881 0.0192162 -0.0584233 0.0190062 0.00467 0.0112135 -0.0299621 0.0403392 -0.0226758 -0.00604215 5.55555e-05 -0.0729705 -0.0238341 0.0113927 0.0156057 0.0170491 0.0484956 0.0617279 -0.0426522 0.00553999 -0.057869 0.00246348 0.0618558 -0.00434505 0.0218108 0.0424759 -0.0940362 0.0556221 -0.0325165 0.0336981 0.0533051 0.0851868 0.00462653 0.0101554 -0.000477671 -0.0347407 -0.0239864 -0.0374124 0.0140536 -0.00292802 -0.0118787 0.0238536 0.0139676 -0.0450636 0.0587341 -0.0310396 0.0296196 0.0476403 -0.0374198 0.0218362 0.0191427 -0.00084551 -0.0213044 -0.024447 0.0310129 -0.00729453 0.0187668 0.0550669 -0.0256694 -0.0420808 -0.0292009 0.0712114 -0.0629932 0.00496308 0.00502258 -0.0474127 0.0208526 0.0261897 0.0566948 -0.0025693 -0.0132888 0.0348299 0.0222813 0.0124681 0.0458793 0.0134656 -0.0542038 -0.0176125 -0.0321556 -0.0900877 0.00919063 0.0164031 0.0289694 0.0326159 0.000454293 -0.0258353 0.0169676 -0.00635784 0.0112586 0.0643203 0.0151178 0.00811206 -0.0487412 -0.00510103 -0.0124214 -0.0194726 0.0615996 -0.0164454 -0.00993594 0.000707856 0.0340514 0.0371456 0.00855754 -0.0403855 0.0135408 -0.0164628 -0.00643526 0.0485089 0.0162534 -0.00483515 0.0259805 0.0245003 0.00984723 0.00137091 -0.0500513 -0.0440483 0.0140278 -0.00841283 0.00655213 0.00592157 0.0782607 -0.0223483 0.0728756 -0.0924987 -0.0441658 -0.00589132 -0.0161356 0.0645001 -0.0255387 0.00235375 0.00273559 0.00520949 0.0539544 0.0137568 0.0184216 -0.00702442 -0.0309798 0.0126252 -0.018062 -0.046251 0.0232205 -0.0270399 0.0221436 0.0307878 -0.0151547 0.0519878 0.0387616 -0.0144144 -0.0131919 0.00301866 -0.0273866 0.0927053 0.0526856 0.0410497 0.0175962 0.00901792 -0.0336238 0.0113549 0.00825097 -0.022691 -0.068364 0.0454236 0.0257386 -0.00509098 0.021592 -0.00180168 -0.00398297 -0.025401 -0.0075151 -0.0212928 0.0320848 0.0349087 0.0522665 -0.00822715 -0.0227145 0.0100103 0.00207396 -0.040188 -0.0672832 -0.00501134 0.0473403 -0.0566475 0.048668 0.0350299 0.0185288 -0.00358427 -0.0536959 0.0033467 0.0248519 -0.022802 -0.0187353 0.0256229 0.0377107 0.0401586 -0.0487459 -0.00909658 0.01708 0.00469084 -0.0128139 -0.0779072 -0.0252183 0.0529306 -0.0173098 0.0256033 0.0593747 -0.0699754 0.0150758 0.00699625 -0.025675 0.00632377 -1.11706e-05 -0.00410052 -0.000350745 -0.00727472 0.0337751 -0.00634656 0.013709 0.054831 -0.00749936 -0.033737 0.0143241 -0.00206123 -0.0419561 0.0075884 -0.0157272 0.0531193 -0.0195746 -0.00754439 -0.012269 -0.0125762 -0.0111922 0.0700783 0.0163519 -0.00126351 0.00823543 0.00877614 -0.0619269 0.0347386 -0.0492566 0.00637302 0.0225678 0.0155717 0.0774998 -0.0430014 0.0183021 0.00785093 -0.0120804 -0.0169432 0.00319427 -0.0152735 0.0051754 0.0308919 -0.0405223 -0.0247042 -0.00165377 -0.0187384 0.0712428 -0.0308084 0.0637632 -0.0246424 0.0509277 0.0311926 -0.0466383 0.0167689 -0.00395923 0.0467603 0.0112319 -0.0297355 0.00362572 -0.0529517 0.0371705 0.0199757 0.0241253 -0.0240729 0.0340349 0.0320183 -0.0752557 -0.0322128 0.0553441 -0.0154336 0.00539167 -0.0265497 -0.00619286 0.0101189 0.0043192 0.0117173 0.0460376 0.0439157 -0.0196449 -0.0478347 0.0605534 -0.00957879 0.0111455 -0.0217745 0.0205593 -0.00770141 0.0386334 -0.011685 -0.0262282 0.0266706 0.0258276 -0.00288202 -0.0651546 0.00704987 -0.0258005 0.0270996 -0.0176708 0.0458102 0.0227504 0.00703097 0.0235874 -0.0168755 0.0218674 -0.0166548 -0.000562258 0.014834 -0.0113801 0.0433004 -0.0117246 -0.0171725 -0.0195697 -0.00388723 0.0716 -0.0196854 -0.0126256 0.00804108 0.0163841 0.00221222 0.070627 -0.0284473 0.0503798 0.018734 -0.0488617 0.0558707 -0.0259674 -0.0757014 -0.0585249 -0.0200249 0.00858825 0.0609557 -0.00649537 -0.00576078 0.0081937 -0.0632818 0.0189809 -0.00358329 0.000478527 0.0365717 0.0499117 -0.000228447 0.0220957 0.0466762 0.0588424 -0.0551469 -0.0572921 -0.0192121 -0.0177062 -0.01209 -0.00772903 -0.0152055 -0.0899454 0.0216022 0.018179 -0.0421636 0.018775 -0.0345532 0.0235853 0.0424609 0.0158576 -0.0882849 -0.00268283 0.0352244 0.0158297 -0.0327214 -0.050079 -0.00141147 0.00185916 -0.031819 -0.0325261 0.020538 0.0269545 -0.000450865 -0.00744894 -0.0241553 0.0379961 0.0204011 0.0111863 -0.00304974 -0.0549881 0.0566122 0.0606591 -0.00464254 -0.0125883 0.000786348 -0.049435 -0.0150406 0.0308845 -0.0287247 0.000460667 -0.0160769 -0.0161011 0.00456481 0.00742615 0.0212558 0.00596133 -0.013762 0.0219497 -0.00124786 -0.0578085 0.0107586 0.0228321 -0.0349282 0.0186734 -0.0617976 -0.0426335 0.0588165 -0.0658105 0.0186959 -0.00431331 0.00383411 -0.0167376 0.0427058 0.0169233 0.017799 0.00621572 0.0198428 -0.0132461 0.0873715 -0.0605425 -0.0406408 0.110509 0.0335109 -0.00267186 0.0227808 -0.0783424 -0.0119332 -0.00187517 0.0129981 -0.0561537 0.0567728 0.0268038 0.0193986 -0.00268627 -0.00349458 0.00409729 0.032986 -0.0397856 0.0477469 -0.0686911 -0.00257701 -0.0494257 -0.0588227 0.00826379 -0.0111367 0.0341489 0.0223666 -8.79511e-05 0.00291069 0.0132279 0.0044072 0.0338293 -0.0541434 -0.025137 -0.021836 0.00425636 -0.0302778 0.0182113 -0.0152361 0.010003 -0.0198549 0.0469425 0.00497923 -0.0103004 -0.00919657 0.0233767 0.0567291 -0.0434713 0.0305418 -0.023751 -0.0450974 -0.0111679 -0.0386749 0.0635499 -0.000826305 -0.0175016 0.0434622 0.00268296 0.0775206 0.0135328 0.0203203 -0.0185059 -0.0170966 0.0114332 -0.00601046 0.0419541 0.00254024 -0.0191705 0.0673212 0.0405911 0.0586616 -0.0311912 -0.0350306 0.0284229 -0.0287563 -0.00221531 -0.0631876 -0.00305099 0.0161525 -0.0197066 -0.0168606 0.0407232 0.015606 0.00211994 0.00452182 -0.0202139 0.014757 -0.0390552 0.0320374 0.0420353 0.0334687 0.0102915 -0.0150683 0.0296952 -0.00859595 -0.00416161 -0.0537042 -0.00184267 -0.0959027 -0.00892851 0.0368882 -0.0385001 -0.00466842 -0.0646872 0.00715702 0.000508317 -0.0146076 -0.0198038 0.00193058 -0.00356984 -0.0346338 0.015714 0.0348202 0.010572 0.027065 0.0167426 -0.0213203 0.0143745 -0.0969086 -0.0122439 0.0624462 -0.0444112 -0.0503409 0.00693286 0.00345766 -0.0101711 -0.0354527 -0.00217243 -0.00602749 0.0192427 0.0345935 -0.0186372 -0.00359374 -0.0563365 0.0147028 -0.0407688 -0.00242848 -0.0303585 -0.0235607 0.0174817 -0.00268183 0.0559045 0.0316903 -0.0200893 0.0305354 -0.00705964 -0.0237739 0.0043086 -0.0413733 0.0223424 0.0111038 0.0282267 -0.0679593 0.0128001 -0.037032 -0.0111444 -0.0253964 0.0244799 -0.0100373 -0.00136152 -0.042123 0.038035 0.00784779 -0.0628258 -0.0019366 0.0537916 0.0324887 0.0379874 0.00418962 0.00150271 0.0659627 -0.0139915 -0.0383243 -0.0430095 0.0339756 -0.100387 0.00610299 0.026427 0.0383479 0.00911294 0.0350711 -0.00369394 0.057194 0.00400638 -0.0264872 -0.0421375 0.00981169 -0.0506633 -0.045388 -0.0202334 -0.0596027 -0.0692269 -0.0702003 -0.0186226 -0.0386907 -0.0551565 0.0149653 -0.0139558 -0.0381355 0.0243067 0.00683956 0.0187133 -0.067395 0.0631916 -0.0381535 -0.0082534 0.0100472 -0.0100085 -0.0424269 0.0493988 0.0372005 -0.0125764 0.0219302 -0.0405836 -0.00990573 -0.0105296 -0.0481853 0.017343 0.00589407 0.0523796 0.00373252 0.00838234 -0.0120835 0.051335 -0.0260143 0.0131407 -0.0542729 0.0178639 0.0082804 -0.0292733 0.0227641 0.0261468 0.014127 -0.0148404 0.0344594 0.0150403 -0.0277982 -0.0055396 -0.040702 -0.0173453 0.00395694 0.00277802 -0.0102578 0.000918205 0.0242025 0.00631821 -0.00523227 0.02418 -0.0549707 -0.00770233 -0.0213128 -0.0084328 0.0107061 0.083373 0.0594303 0.0238286 0.0390452 0.00791654 -0.0623066 -0.00121259 0.0344972 -0.0292638 0.0213536 -0.00840025 -0.0596098 -0.0210697 0.051276 -0.0169722 0.0179524 -0.0235393 0.0127225 0.0195259 -0.0330788 0.0706442 0.00319774 0.0538691 -0.0333789 -0.00285983 0.0902902 0.0050684 -0.0252216 0.00252682 -0.033906 0.00539273 0.00486091 0.0429392 -0.0292049 -0.0544965 -0.0165516 0.00644041 0.0111906 -0.012266 0.0149387 -0.0556107 -0.0363712 -0.00095946 0.00325121 0.0149599 0.0370567 0.028227 0.00797768 -0.0400054 -0.0296045 0.0370015 0.00848173 0.0270914 0.00800095 0.0790102 -0.0112116 -0.0527651 -0.0506398 0.032188 0.0433483 0.0353648 0.0245393 -0.0742605 0.0156686 0.0626873 -0.0626845 -0.0134906 -0.0176564 -0.00769292 0.0251843 -0.0781062 -0.0282541 -0.0139456 0.0327013 -0.0468796 0.0175941 0.0369217 0.0367163 0.0215028 0.0634417 -0.0198028 0.0136309 -0.0155989 -0.0189893 -0.0249276 0.0325559 0.024259 0.00355082 0.0346101 0.00732497 0.00320114 -0.0561156 -0.00994464 0.0458436 -0.0123557 0.0486296 0.046714 -0.00411192 0.00613742 0.0307316 0.0266881 0.0497496 -0.0391323 0.0137897 -0.0348786 -0.0324092 0.00919499 0.00853827 0.0211367 0.0663779 -0.0470656 0.0279674 -0.0523178 -0.0112673 0.0302634 0.081034 0.0153674 0.0416538 0.0384543 -0.017523 -0.00258744 0.0371382 0.0344835 -0.0253483 0.000500443 -0.0463861 0.0451665 0.000573736 -0.00305395 -0.0202329 0.0603588 -0.0388638 -0.0162613 0.00440643 -0.0258185 -0.0131916 -0.00411837 -0.0361895 0.0190909 -0.0367195 -0.0208104 0.00203913 -0.0187715 -0.0389518 -0.0358928 -0.0455307 0.030054 -0.0344043 0.0144637 -0.0297792 -0.0164369 -0.0833394 0.0256759 -0.00261171 -0.0230666 -0.0182747 -0.0243206 0.0862643 -0.0337785 0.0010784 -0.0108393 -0.0660205 0.0453832 0.00998469 0.000601252 -0.0107492 -0.00609063 0.0426779 0.077383 0.0417977 0.00691834 0.0432302 0.00511697 -0.0275708 -0.0353976 -0.0578312 0.0467055 -0.0563793 -0.0213381 -0.0305834 -0.0164063 -0.0194968 0.00155765 -0.0832294 0.015086 0.00899535 0.00357072 0.0111962 -0.0695792 0.0170418 0.00710803 -0.0036546 0.066919 0.0332959 -0.0109887 -0.0287431 0.0567328 -0.00623827 0.0312553 0.0280054 -0.0971851 0.0133969 -0.0619788 -0.024442 0.00419186 0.0172286 -0.00611052 -0.0241728 -0.00376274 -0.00633199 -0.02546 -0.000665258 -0.0442276 0.0211754 0.0416154 0.0147832 0.0286254 -0.0179888 -0.018967 -0.0406084 -0.0237811 -0.0177476 0.0150851 -0.0177197 0.0467609 0.0103575 0.0280795 -0.0371886 0.0532558 0.0280356 0.0718348 -0.0227714 -0.0248695 -0.0201756 -0.0595087 0.0115687 0.0404519 0.0715802 -0.00151523 -0.00790246 0.020675 -0.00973839 -0.00298153 -0.0495859 -0.0322282 -0.0227072 0.0165006 0.0474203 0.0363677 0.0140287 0.0232357 0.0222714 0.0232431 -0.0431071 -0.02033 -0.0217797 0.0129785 0.0301184 -0.0164945 -0.0595224 0.0139697 0.00230669 0.0329274 -0.0507581 0.0149008 0.00916521 -0.0376927 -0.00342241 -0.0359975 0.0263236 -0.0148585 0.0588645 0.0671205 0.0291396 0.0481947 -0.00608959 0.0156899 -0.00127689 0.0359148 -0.00965194 -0.0284156 -0.018851 -0.0118778 0.0388114 -0.0508135 -0.0456707 0.00785295 0.00687217 -0.0330112 0.00528185 0.026989 -0.0192812 0.0453472 0.0329023 0.0245878 -0.00931696 -0.0238524 0.0312476 0.0502781 0.0779395 0.00593664 0.0297967 0.0290008 0.0173851 0.0516043 -0.0120777 0.0216323 0.0186922 0.0490372 -0.0493452 0.0916413 -0.00178841 -0.00309618 0.0624925 0.0219375 -0.0494767 0.0305315 0.0134926 -0.0605412 0.00958069 -0.00641728 -0.0203376 0.0186011 0.0125263 0.0107615 0.026899 -0.0117981 -0.0434636 0.0360777 -0.0131712 -0.0331848 -0.0305989 0.0341495 -0.0197917 0.00415713 0.0246425 0.00514229 -0.0190594 -0.0144853 -0.00121944 -0.0124672 0.0542495 -0.0141149 0.0325755 -0.0711743 0.0178194 0.0292569 -0.082589 0.0583047 -0.0456482 -0.00010387 0.0408257 0.0424392 -0.0784628 -0.00568494 -0.0271115 -0.0460918 -0.0277922 0.0148181 0.0771665 -0.0328135 -0.0615675 -0.0361915 0.0650606 -0.0031472 -0.00179745 0.0466874 0.0430003 -0.0442707 0.00233613 0.0112981 -0.0293516 0.0201046 -0.0493606 -0.0117261 0.060892 -0.0261106 0.0428036 -0.000322259 0.0637543 -0.011194 0.0188477 0.00905818 0.0157174 0.00634839 0.026544 0.00170833 0.0205369 0.0260838 -0.0193032 0.0217041 0.0477367 0.0361199 0.0273672 0.0147965 0.0254395 0.0282822 -0.0148869 0.00220442 -0.026613 -0.0033335 -0.0398567 -0.0377831 0.0367067 -0.0170927 -0.0479155 0.0143256 0.013265 -0.0897099 0.0115244 -0.0228854 0.0095126 -0.00466659 0.0213844 0.0965861 0.00288056 0.0243339 -0.0385498 0.093568 0.0226024 -0.0367421 0.0852036 0.00554821 0.0206473 0.0610856 0.0467422 -0.028548 -0.0151522 0.0317876 0.00413576 -0.0647464 -0.0255215 0.0503406 0.00235515 -0.028547 -0.0642171 0.0250317 0.0241505 0.0105918 0.00301234 -0.00709818 0.0424768 0.00860219 0.0548018 0.0268866 0.0127893 -0.0474357 0.0159143 0.00157102 -0.00336221 0.04726 0.0118872 0.0148014 0.0410523 0.0185919 0.073188 -0.00764386 -0.0177607 -0.0027731 -0.0898949 0.0195177 -0.00834936 0.0408437 0.0307967 0.00610276 0.0364146 -0.039173 0.0192967 -0.0425188 0.0408125 0.0174012 0.0367734 -0.0154514 -0.033291 -0.00068219 -0.0195712 0.0248642 0.0295474 0.000230336 0.0560945 0.0479918 0.0242319 0.0276764 -0.0315702 -0.0138479 0.0650177 0.0229477 0.0587421 -0.0218826 -0.0661187 0.00966499 -0.0629603 -0.00285156 0.00262404 0.0248371 -0.0473069 -0.0410407 0.00827414 -0.00165804 -0.00303199 0.00489631 -0.0492759 0.0284019 -0.0160518 -0.00809134 -0.00939381 -0.0147689 -0.0129681 0.0122121 -0.000669105 -0.00865044 -0.0623886 -0.0321647 0.050948 -0.0344875 -0.0159972 0.0552651 0.00402965 -0.0222262 0.013155 -0.0589087 -0.00232762 -0.0441557 -0.0393697 0.0261135 -0.0284975 0.0110034 -0.0393466 0.012832 -0.0264376 -0.0122853 -0.0528154 0.0184755 0.0357378 -0.00347919 0.0301266 -0.0186148 -0.0219827 0.0123728 -0.0306499 0.0238276 -0.0139578 -0.0204338 0.0775064 -0.0705742 -0.0383276 0.0161551 -0.0585192 0.016995 0.0609346 0.0148786 0.000232599 0.0231426 0.00206306 -0.00689416 -0.0345744 -0.0413449 -0.0114869 0.011675 -0.0210314 -0.048788 0.0232595 0.00595254 -0.0173347 0.02593 0.00151279 -0.00128976 -0.000822551 0.065183 -0.0210901 0.0115614 -0.0664229 0.0409481 0.00628392 -0.00711043 0.0365927 -0.00965434 -0.0623308 0.0478308 0.0470784 0.0056847 -0.00197023 0.0482939 -0.0204003 0.000279614 -0.00406944 0.0251277 -0.030457 -0.00982991 -0.0201734 -0.0074574 0.00374989 -0.0157924 -0.0320026 0.018505 -0.0151748 -0.0141667 0.0502054 0.018092 0.053996 0.0641123 0.0595646 -0.0283663 0.00338106 0.0841013 -0.0740145 0.0835659 0.0436152 -0.00152868 -0.0113876 -0.0283287 0.0304686 -0.0019922 0.00302951 0.0141715 -0.0318142 -0.00147296 -0.0274119 0.00163883 -0.038126 -0.0046194 0.0484042 -0.00401569 0.0425495 -0.0203105 0.0354992 0.00201233 -0.0326463 -0.0503042 -0.0537791 0.00297361 -0.0135465 0.030682 0.0462171 0.0306823 0.0385692 0.0321566 0.00628542 0.0353847 -0.0124116 0.0469284 -0.00963142 0.0113981 0.0295083 -0.00578267 -0.0544811 0.00879195 -0.0161152 -0.0656687 -0.0856902 0.0228302 0.0122049 -0.0153171 -0.00488231 0.0243302 -0.00221045 -0.0352186 -0.0355456 -0.0303907 -0.0177005 0.0058259 0.0398404 0.0126589 -0.0300425 0.0353659 0.033322 0.0104569 0.00989449 -0.0430301 -0.0219602 -0.00144615 -0.0657314 -0.00747922 0.0410781 -0.0318288 -0.025255 -0.0131386 0.00890441 0.00131958 -0.00681477 0.0540467 -0.0194055 -0.00170096 -0.0123388 0.0143982 0.00375454 -0.0149747 -0.0392021 0.0530191 0.00820234 0.0279408 0.055164 0.00861521 0.00503077 -0.0242334 0.011071 0.00243369 -0.0233124 -0.060934 -0.0118603 0.00691937 0.0466583 0.037126 -0.0089871 -0.00128689 0.0278826 -0.0400032 -0.0134684 -0.0074657 -0.0239425 -0.027123 -0.0247696 0.030306 -0.0210824 0.0209841 -0.00463894 0.0250976 0.0330275 -0.0211942 0.0377255 0.0149532 -0.0496768 0.0269621 -0.0408785 0.0350384 0.00236454 -0.0120691 -0.0302777 0.0202626 0.0446184 0.00400973 -0.00157455 -0.0188175 0.0392975 0.00836092 0.0292549 -0.103704 0.0245923 0.0122856 -0.00307883 -0.00381143 0.023984 -0.000363467 0.00948106 0.0121173 -0.0399421 -9.66434e-05 -0.0249796 0.0249857 0.0286691 0.00876007 0.0554568 0.090801 -0.0507071 -0.00654019 0.00512391 -0.0371719 -0.063114 -0.00459046 0.025406 0.00369264 -0.0127549 0.0633307 -0.052403 0.0697745 0.0267886 -0.0138455 0.00785507 0.0406254 -0.010614 0.0423459 0.00438643 0.0113308 -0.00680945 0.0317263 0.00686552 -0.0786075 -0.00470221 -0.000383718 0.0452511 0.0182065 0.0439843 0.00812662 0.0205565 0.00849495 -0.00444954 -0.0174315 0.0543141 0.0329951 -0.0429271 0.0762878 0.0354652 -0.0507078 -0.0680195 0.0523959 0.0178585 -0.0266513 -0.00561013 0.00818263 0.0537589 -0.061093 0.00658629 0.0789892 -0.0106304 0.00358464 -0.00567353 0.0433693 -0.0123198 -0.0499869 -0.0379607 -0.0201548 0.00674638 -0.0579106 -0.0421061 0.0265724 -0.0174517 -0.0428064 -0.083553 -0.0243798 -0.0493394 -0.0908639 -0.0318885 -0.0373509 -0.034567 0.0110298 0.0417758 0.0164162 -0.0402541 -0.0168475 0.0163786 6.46888e-05 -0.057188 0.0173359 0.0348761 0.0134483 -0.0473816 0.0154771 0.00835927 0.0162861 0.0298084 0.0236985 0.0055757 0.0179518 0.0388117 0.00151914 -0.0281082 0.00476246 0.01538 -0.0310542 -0.061225 -0.0228507 0.00218995 0.0290947 -0.0547694 -0.0610224 -0.0256053 0.0261213 -0.0126316 -0.000143607 -0.0725441 0.0255126 -0.0249341 -0.00488234 0.039769 -0.0207137 -0.0410111 0.0258231 -0.0392537 -0.0385281 -0.0516711 -0.0370405 -0.00591969 -0.0170883 0.0269639 -0.0362538 0.0134596 0.049396 -0.0264468 0.0981419 -0.00104272 -0.0300394 0.00339217 0.00979109 -0.0137589 0.0161913 -0.0455885 0.0213794 0.0146727 0.0350399 0.0114585 0.0323578 0.0211724 0.011322 0.0435751 0.0470359 -0.0719241 -0.0045252 0.0245356 -0.0094787 -0.0542317 -0.00021049 -0.0502271 -0.0532339 0.0230435 -0.0256777 -0.000735065 -0.0364994 -0.00988297 -0.0197925 -0.0262278 0.0855626 0.00432392 0.092726 -0.0126315 0.0207584 0.0277692 0.0711926 -0.00204992 0.021885 -0.0466748 -0.00209903 -0.0907912 0.0343739 0.100123 0.11225 0.0141013 -0.037722 -0.0462599 0.00899653 -0.0447519 0.00634668 -0.00170426 0.0106279 -0.0109054 0.0309351 -0.110178 0.0164088 -0.00895764 0.083161 0.0438818 -0.0111105 0.00702145 0.0500677 0.0174986 -0.0345233 -0.00352325 -0.0591576 -0.0117819 -0.0160274 0.0185671 -0.00330069 -0.0396141 -0.0239241 0.0160179 -0.0344041 0.00105434 0.0267245 -0.0371397 0.0430656 -0.0496306 -0.0135481 -0.0830491 0.00819632 -0.0263022 0.000481936 0.0315175 0.0230917 0.0438643 0.00610604 -0.0557586 0.0310846 0.0116454 0.000448323 0.0409769 0.0375573 0.0157759 -0.0576373 0.0830123 -0.0435089 0.00628211 -0.00875854 -0.031345 -0.002902 -0.0273371 0.00181913 0.0351862 -0.0140686 0.0544597 -0.0194431 0.0314156 0.0173307 -0.0501355 -0.0628792 0.00355669 -0.0306503 -0.0318206 -0.000877966 0.0471561 0.0188435 0.0222042 -0.00382175 -0.0519294 -0.0317228 0.0373178 0.0607069 0.0171394 -0.0136233 -0.0145178 0.0101494 0.0193554 -0.0213013 0.00940998 -0.0106889 0.0341508 0.0359638 0.0175009 -0.00796504 -0.0236915 0.0265306 -0.0403421 -0.0561196 -0.0451871 0.0177973 -0.0272378 0.0579239 -0.0485598 -0.0239168 0.123324 -0.0144382 0.0156964 -0.0227087 -0.0326449 -0.0036968 -0.0118494 0.00745603 0.0213661 0.0199302 0.04224 -0.00781992 -0.0778147 -0.0900093 0.0122525 0.00194802 -0.0333583 0.0458986 -0.00199492 -0.0526418 -0.0183717 -0.0251791 -0.0334788 -0.0564906 -0.0699948 0.0655101 -0.0189384 -0.00490193 0.025436 0.0453312 0.00311859 0.0208888 -0.00116125 0.00156249 0.0409794 0.0377392 0.0273781 0.00898289 0.00366003 0.0537229 -0.0458235 -0.016227 -0.0201585 0.056252 -0.00532787 -0.0281732 0.017064 -0.0374067 -0.0218792 -0.0285363 -0.0181348 0.0363937 -0.0673313 0.00764488 -0.0349984 -0.032013 -0.0261827 -0.0679356 0.0924586 -0.00329259 -0.042089 -0.0605694 -0.0300735 -0.0358912 -0.00363588 -0.0529873 -0.0142157 0.00486925 -0.0346382 0.00372139 -0.0320592 -0.00676494 0.00713572 0.0271753 0.0426487 0.0338495 -0.00653844 0.0488734 0.00462899 -0.0322749 0.0294081 0.0300439 0.059373 0.0108554 -0.0576845 -0.0635618 0.0219628 -0.0435999 -0.0114471 -0.00898201 -0.0188106 0.0168632 0.0235557 -0.0432708 0.0761002 0.0342362 -0.0176021 0.0398917 0.0145571 0.0568572 0.0175605 -0.0603629 0.0413182 -0.0450189 0.00731552 -0.0140258 0.0616463 0.0373722 0.0235631 -0.0395885 0.0254127 -0.0452569 0.0105483 -0.0419542 -0.0362637 0.0187232 -0.030957 0.0190123 0.0275175 0.0241252 0.0228554 0.0214498 -0.00697574 0.0325196 -0.0448063 0.0361135 0.0345398 -0.0394164 -0.00738624 -0.0310158 -0.00330636 -0.0865711 0.0545243 0.0145967 -0.00435504 0.0328809 -0.0257897 -0.0167422 -0.0261469 -0.0204351 -0.0577515 -0.0366663 -0.0440853 -0.011846 0.0112457 -0.0119223 0.00397412 0.0316377 0.092524 -0.032441 -0.0129312 -0.0327989 -0.0180928 -0.0764653 -0.0515885 -0.0115814 -0.0276649 -0.0806721 -0.0434367 0.0120436 0.024715 -0.0659497 -0.000287808 0.00485406 0.0205008 0.0543117 -0.0285753 0.0460397 -0.0178944 0.035909 -0.0420652 -0.0460922 0.0463174 -0.0485027 -0.0024397 -0.0477159 0.00676584 -0.00136215 -0.067714 0.0114891 0.00847287 0.0426074 -0.0643375 0.00405364 0.0252366 0.0149742 -0.0226652 -0.0882082 0.0242155 0.0391932 -0.0140849 -0.0322546 -0.0735856 -0.00199245 -0.0610318 0.0108257 -0.0210965 -0.0159965 -0.0298191 0.0471337 0.0247346 0.0289748 0.0378384 -0.0597105 0.0365035 0.0142846 0.00769761 0.0169962 -0.0516392 -0.001609 -0.0188546 0.00669663 0.0382946 0.00471249 -0.0319882 0.0300926 0.025505 0.0328018 0.0123047 -0.0218685 0.0507076 -0.0169929 -0.0720417 0.0077053 0.0486851 -0.00652787 -0.0150818 -0.0517475 0.0325036 -0.0724473 0.0367374 0.00942378 0.00792567 -0.00815193 -0.0387512 0.0275833 -0.0279845 -0.0364706 0.0116482 0.0226637 0.0387445 0.035201 0.0917568 -0.03297 0.0131359 0.0510982 0.000541759 -0.0139816 0.0215022 -0.0352937 -0.0182783 0.0524318 -0.0211778 0.0353519 -0.0030253 0.0146829 0.0109451 0.013417 -0.0683136 -0.0434584 0.0346902 -0.0258824 0.00142649 -0.038784 -0.00778965 -0.0204518 0.0307132 -0.0557044 -0.050516 0.0496212 0.0300567 0.0171692 -0.0287613 -0.00631452 -0.0285024 0.0240022 0.0263174 -0.0311856 0.0267196 -0.0175777 0.0144228 -0.0349259 -0.00517215 0.0275987 0.066712 -0.0267532 -0.045531 -0.0695329 -0.0375586 0.0487272 -0.110028 0.0611116 -0.0299057 -0.0295316 0.00441318 0.0235506 0.0249433 -0.0464209 0.02986 1.60328e-05 -0.0200544 0.0126674 -0.0357588 -0.0568152 -0.0132991 -0.00648674 -0.0219371 0.0396139 0.0133579 0.0106333 -0.00145211 -0.0331921 0.0346677 -0.00940186 0.0520064 -0.00813371 0.0228624 0.019057 -0.0229514 -0.0465695 -0.0564522 0.0423191 -0.00525344 -0.0111546 -0.0360345 0.0143932 0.0476039 0.0167567 0.0451209 0.00112513 0.024674 0.0247502 0.0546092 0.0587742 -0.0333635 0.0766832 0.0495574 -0.0124637 -0.0011409 -0.022639 -0.0187656 -0.00822072 -0.0250944 0.0140232 -0.0359469 -0.0485656 0.00497225 -0.00866263 0.0388009 0.00350812 -0.0386269 -0.0731824 -0.00684894 -0.00585759 -0.0368347 0.00871243 0.0896442 -0.0144511 -0.00569791 0.0681104 -0.0190315 0.0463601 0.000314065 0.0357894 -0.0197004 0.0326383 0.0387014 0.0269 -0.0293918 -0.0369957 0.000828524 0.0738317 -0.016239 -0.01296 -0.0207195 -0.0378278 0.0604787 0.0088317 0.0693428 -0.0579608 -0.0202917 -2.62732e-05 -0.0530116 -0.0265038 0.0105232 0.0113663 0.0476783 -0.0187293 0.0178496 0.0221537 0.0279619 -0.0298165 0.0184169 0.000626466 -0.0204372 -0.00886257 -0.000719209 -0.0190199 0.0218304 -0.0263318 -0.0201839 0.00800915 0.0381919 -0.0753097 -0.0103246 -0.0532224 0.0281659 0.000538986 -0.063246 -0.0797916 -0.0310541 -0.00961497 0.047863 -0.0284818 0.0230916 -0.00722861 0.0126523 0.0453372 0.0635043 0.0223314 -0.0225014 -0.0371249 -0.0179438 -0.0170783 0.023981 -0.0594249 0.0460726 0.00975928 -0.0388739 -0.0539681 0.0209049 0.048289 -0.0312583 0.0275255 0.0294844 0.0102633 -0.0475133 0.016772 -0.0519647 0.0527969 0.0454116 0.0374395 -0.034997 0.0115865 -0.0405585 0.0630198 -0.0190005 -0.00753634 0.00287743 0.015923 0.00835327 -0.015093 0.0280988 0.00993824 -0.0144853 0.00736709 0.00399315 0.0637344 0.0428028 -0.0148149 -0.0509094 0.00464855 -0.0332175 -0.03562 -0.029612 -0.0439348 0.0422914 -0.0061293 -0.0154533 -0.00475499 -0.0493521 -0.0111845 -0.0417487 -0.00598484 -0.00157924 -0.0331859 -0.0611462 0.00331133 0.00959927 0.0126184 0.0615548 0.0655616 -0.0391547 -0.0297479 -0.0243194 0.0347602 0.005122 0.015629 -0.0397188 0.0361647 0.00468124 -0.0267113 -0.00957232 0.0185983 -0.0605873 -0.0195331 0.0611341 0.00561183 0.0160719 -0.0326422 -0.0567373 0.041965 -0.00614068 -0.0110971 -0.0328534 0.0609671 -0.0421293 -0.0754111 0.0494843 -0.0287771 0.0325837 -0.0318439 -0.0303622 0.0297846 -0.00289786 0.00502724 -0.0353041 -0.0202214 0.0218005 -0.0105742 -0.0245028 -0.0407479 0.0128336 -0.00989488 0.0114781 0.00565318 0.0376296 0.0570025 -0.028254 0.0305889 0.0233949 -0.0146933 -0.0174103 -0.00115592 -0.028813 0.0348861 -0.0213461 -0.00388444 -0.0587916 -0.0533944 0.0232091 0.0679993 -0.00980246 -0.0261888 -0.0406154 0.00925961 -0.00289875 0.00251864 -0.00803744 0.0312228 -0.0181421 0.00333064 0.0173455 -0.104094 -0.0323578 0.049414 -0.0359526 -0.000575383 -0.0249411 -0.0624573 -0.04613 0.0219279 0.0172064 -0.0270061 0.0374908 -0.0259018 -0.00675668 -0.0705704 -0.0515755 0.0299232 -0.0297498 0.0197386 -0.0480576 0.00881567 -0.0102127 0.00571203 -0.032288 -0.0039114 -0.00811367 -0.0274384 0.0572218 0.0156885 0.0190955 -0.031046 -0.0469069 0.00504362 -0.0644633 0.0281274 -0.0145007 0.104135 0.0603971 -0.0127602 -0.0129147 0.0347281 0.00713386 -0.065326 -0.031718 0.00788932 -0.0167075 0.088476 -0.00782445 0.0748382 8.22081e-05 0.0314553 -0.00993389 -0.0403824 -0.028437 0.0236416 0.0391784 0.00190036 -0.00798469 0.0399074 -0.0183144 0.0256738 0.0253843 -0.0551178 0.0362067 0.0249996 0.0125244 -0.0569026 -0.00614009 -0.0181658 -0.0228185 -0.0313485 -0.0172492 0.0643716 -0.0493121 0.00642249 -0.0149244 0.0291091 0.0370491 0.0488832 -0.0330753 -0.00728864 0.00799394 0.00614687 0.0454598 0.0060472 -0.0518688 0.0749205 0.0594091 -0.0421703 0.0124147 -0.00731328 0.0220867 -0.0321514 0.0106593 -0.00845863 0.00218645 -0.0105179 0.00240931 0.0158644 -0.0264261 -0.00491336 0.0040271 -0.0893438 -0.00345827 -0.0136643 0.024987 -0.0103958 -0.00677062 0.0501788 -0.0236275 -0.0236365 0.0408444 -0.000543717 0.0108979 0.0676496 -0.0438524 -0.0262544 0.0559832 -0.0396804 -0.0235599 0.0295576 -0.0243783 -0.013479 0.0130768 0.00379525 -0.036682 -0.0106898 -0.0229258 -0.00335186 0.00897614 0.0966202 -0.0565218 0.0108417 -0.0566182 -0.040538 0.0448376 0.00583516 -0.0158715 -0.0377275 0.0528321 0.0326471 -0.0197328 0.0529007 -0.00354381 0.0181923 0.0110876 0.0440561 -0.00424949 0.0220737 -0.00467478 0.0350408 -0.0318866 -0.00248653 0.0387381 -0.0369805 -0.0319972 0.0325421 -0.0284821 -0.00212865 -0.0121889 -0.000935006 0.0498806 -0.00898603 0.0512233 -0.0127205 0.00187718 -0.0614839 -0.0219144 0.08492 0.00985293 0.0504929 -0.0294159 0.0518066 -0.0411656 0.000856886 0.0105476 -0.0182165 -0.00178643 0.0612363 -0.018825 0.0890786 0.0462408 0.0576901 0.0337489 0.0206309 -0.00524987 0.0177141 0.0298477 -0.0579956 0.0205794 -0.0519729 0.00472732 -0.0570369 0.0309308 0.0640215 -0.0405541 -0.0221812 0.051618 -0.0154267 0.0748999 -0.0275503 0.0234714 -0.0219037 -0.017055 -0.0413747 0.00218335 -0.00272509 -0.0134469 0.0247576 -0.00829677 0.0343858 -0.043413 -0.0149275 0.00702106 -0.0344638 0.011326 -0.036529 0.0398689 0.0136052 0.0101988 0.0318503 -0.029054 -0.00589931 -0.0499605 0.0556011 -0.0181073 -0.0168317 0.0111473 -0.0689563 0.0276868 0.0324547 -0.0338889 0.0977651 0.00400661 0.0291132 0.0425354 -0.0313428 0.0721465 0.00798456 -0.0633604 -0.0632403 -0.0407364 -0.00906511 0.0517408 0.0214078 -0.0276172 -0.020678 0.00419553 0.029819 -0.00472543 -0.0589613 -0.0165399 -0.000178029 -0.0365414 -0.064869 -0.0296645 -0.0512735 0.0139401 0.0443845 0.0286812 0.0540427 -0.0317932 0.035412 -0.00197934 0.0259371 0.0480783 -0.0142376 0.0190257 -0.00890489 -0.0130506 -0.0478778 0.0376262 -0.0359508 -0.0141962 0.0642703 -0.00752733 0.0315609 0.00239044 -0.089681 0.0531129 0.00615091 -0.00516252 -0.0165849 -0.0747492 -0.0380784 -0.0210863 -0.0288214 -0.0405559 0.0230481 0.00850835 0.0195379 -0.0160829 -0.0291174 -0.0209935 -0.0049807 0.0499232 0.00363052 0.0499343 -0.022881 0.0929836 -0.000199717 0.0175235 2.7012e-05 -0.012116 -0.0174291 0.0106457 -0.0232081 0.0195038 0.0488203 0.00634011 0.0179068 0.0178276 0.00558585 -0.0347247 -0.0934079 0.00539765 0.0110963 -0.0241854 -0.0278686 -0.0287853 -0.0198136 0.0233706 0.0728911 0.0567989 0.023439 -0.0450781 -0.0108284 0.0160706 -0.0119881 -0.00469459 0.0097035 0.0178241 0.0461713 -0.0208508 0.0179342 0.052887 -0.0270202 -0.0298733 0.0564342 -0.0699757 0.021065 -0.0750406 0.00994503 0.0330536 0.0664121 0.0299188 0.00552293 0.0252949 0.0323808 -0.0284903 -0.0711647 -0.00841543 0.0396902 0.00920341 -0.0523806 0.0134266 0.0195767 0.0433937 0.102767 -0.0155831 -0.0245574 -0.0134198 -0.0212002 0.00689266 0.0222221 -0.0765229 -0.0155386 -0.0510643 -0.0360262 -0.0464058 -0.0148325 -0.0336662 -0.0443347 0.103457 -0.0416699 -0.0755107 -0.0330491 -0.0101703 0.0625404 0.00427807 0.0197973 -0.0108216 0.0539423 -0.0212402 0.0468882 0.00367321 -0.0162333 -0.0106202 0.0656775 0.0243907 0.0188945 -0.0127679 -0.0183976 -0.0347966 0.00445728 -0.0142739 0.0294814 -0.00297205 0.0240632 -0.00305978 -0.0235905 0.0388671 0.0249619 0.024924 -0.0217437 0.0215437 -0.0586875 0.0380259 -0.0121023 -0.0142325 0.0329958 0.00762262 0.0152375 0.0303948 -0.0180069 -0.072374 0.000211744 -0.028169 0.0451913 -0.0219814 0.0968349 0.00403478 -0.00875307 -0.017541 -0.0593514 -0.00808012 -0.0579895 -0.0723543 -0.0169186 0.0325886 -0.0518327 0.00419198 -0.0012991 0.0268781 0.0568701 -0.024461 -0.0619497 0.0455947 -0.01895 0.0103422 0.0420478 0.0775569 0.0101373 0.0336176 0.0149669 -0.020035 -0.0577919 0.0399764 0.059404 0.0172712 -0.0241344 -0.0268266 -0.05714 -0.0170691 -0.00820892 0.0686179 -0.0317045 -0.0380085 0.0110761 -0.0044656 -0.0840303 -0.0320788 -0.00418667 -0.0378523 0.0432845 -0.0296989 0.0139742 -0.0346884 0.107353 -0.0103119 0.0124181 -0.0614548 0.0691038 -0.0439467 0.00793187 -0.00131401 0.051166 0.00500544 0.00277468 -0.0513095 -0.0792337 0.0330559 -0.00131371 0.00415909 -0.0525197 -0.0536727 0.00261587 0.0174127 0.0298495 -0.0253421 -0.0219182 0.0653198 -0.0125704 0.0256015 0.0428197 0.00294413 0.0150854 0.0286672 -0.00965503 -0.0241507 0.00532249 -0.0211154 -0.0129178 -0.00552963 -0.0430821 -0.000897684 0.0259041 -0.0271228 -0.00106659 -0.0574504 -0.0186241 -0.00712288 -0.00103275 0.0415113 -0.0479697 0.0719066 -0.0449302 0.0341264 -0.0179606 0.0246407 0.0138118 0.00251018 -0.0147733 0.0129163 0.0445237 0.00711067 -0.0349327 -0.0431643 0.0375915 -0.0277724 -0.00344856 0.0575126 -0.0163241 0.0776164 -0.0436727 0.0290643 0.0262465 0.0538958 -0.00322886 0.0643581 -0.00944109 -0.0456138 -0.00313567 -0.0455167 -0.088234 -0.0112503 0.045248 0.0151879 0.011106 0.0381872 0.00746884 -0.00733664 0.0167081 -0.000124935 0.0415799 0.0618371 -0.00569411 -0.0728779 0.000791476 0.00658945 -0.0144617 -0.00880411 0.0434748 -0.0153051 0.032196 0.0243572 0.0410034 0.037121 0.074381 -0.00515118 -0.0366681 0.0024844 -0.0357187 0.0504837 -0.00896338 -0.00841535 0.0356208 0.0407854 -0.000289063 -0.0254916 -0.00142906 0.0369335 0.0029232 -0.0338131 0.0208784 -0.0387517 -0.0383704 0.0578288 0.018027 0.0147641 -0.0510601 0.0468323 0.0441033 0.0275775 0.0140895 0.00668534 -0.00231483 0.0061059 0.00671079 -0.00733653 0.0205141 -0.0129064 -0.0207642 -0.0264265 0.01138 -0.0033214 0.00816368 -0.0234696 0.0010438 0.0254982 0.0656352 -0.0429625 0.0327616 0.0460769 -0.0238101 0.017134 0.0108461 0.00375005 0.0691054 0.0438519 -0.0142363 0.0428136 -0.0131844 0.0598547 -0.0211511 -0.0649063 0.0301729 -0.0224761 -0.00179229 -0.00811503 -0.0291414 0.010426 0.00881983 -0.00181521 0.0421054 -0.0141584 -0.0301738 -0.0294648 -0.00194477 0.048523 -0.00359092 0.0637182 -0.0729644 0.0440388 0.00874916 -0.0266041 -0.0625461 -0.00457563 0.0679489 0.0325367 -0.055487 -0.0732063 0.00818132 -0.0669069 0.0287351 -0.00216634 -0.00275463 0.0660021 -0.0187763 -0.0302215 0.0185906 -0.045222 -0.0826493 0.0131234 0.0280683 0.0499698 -0.00645033 0.016526 0.0194076 1.80336e-05 0.00868283 0.0380896 -0.0115385 -0.097167 0.0224125 0.0120982 -0.0133728 -0.0587652 0.000677418 0.00719188 -0.0147578 0.061749 -0.0344372 0.0110338 0.0457445 0.0659914 0.00828224 0.00545951 -0.0240237 -0.00378467 -0.00631356 0.00233105 0.0490183 0.0357996 -0.0533357 0.0148271 -0.0352886 0.0528018 -0.00886042 0.0537743 0.0365295 0.0451614 0.0448208 -0.0146366 0.00334013 0.060832 -0.00601818 0.017448 0.0274043 -0.0164316 -0.0167073 0.0468905 -0.0136006 -0.0276372 0.00161493 0.0247011 0.0061993 -0.0354134 0.028053 0.0600505 0.036788 0.00402668 -0.0307949 0.001482 0.0358285 -0.062761 -0.0175231 -0.00551189 0.0760415 -0.0203542 0.100917 -0.0314309 -0.0725208 0.0174902 -0.0602032 0.0123354 -0.0453338 -0.0104321 0.0109913 -0.0106287 -0.0522959 0.0361831 0.0115788 -0.0612221 -0.0202399 0.0595742 -0.0230593 -0.0753038 -0.0213696 -0.0614581 0.00107789 0.0320633 0.033684 -0.0412871 -0.035767 0.0372287 -0.0521874 -0.077455 -0.00250146 -0.0354405 0.0448335 -0.00662803 -0.0609856 -0.0330512 -0.014054 -0.0277246 -0.0244006 0.00878753 0.0451867 0.0137627 0.00833187 -0.00182869 0.0202639 0.00208446 0.0142503 0.0368983 0.00570841 0.016654 -0.00225181 -0.0421595 0.0211754 -0.0654526 -0.0269038 -0.016587 -0.0895463 -0.0214192 0.0133587 0.0278533 0.052707 0.00395556 0.0182819 -0.0240474 0.0337524 -0.0270279 0.097816 0.00477503 -0.0152862 0.0585388 -0.0303674 -0.00623899 0.0652561 -0.0457109 -0.00657104 -0.0180004 0.0351883 0.00784151 0.0097272 0.0571949 -0.0167664 0.0302495 0.00266261 0.0331418 -0.0582303 -0.00038262 0.111487 -0.00696614 -0.00502021 -0.000180356 -0.0156974 -0.0298097 0.0765948 -0.0248121 -0.0432252 0.0151278 0.00589672 -0.0326219 0.00740165 -0.0102696 -0.0230521 0.0805347 -0.0594183 0.0221201 -0.00360371 -0.00214094 -0.0162532 -0.0314597 -0.0121395 0.0506646 0.0390973 0.0498642 -0.0206636 0.00610789 -0.0345716 0.00993866 0.0594253 0.02417 0.0423172 -0.0331668 0.0400451 -0.0337522 -0.069601 -0.0504961 0.0103416 0.0354565 -0.00976816 -0.0519875 -0.0101457 -0.0159405 0.0031586 0.0511501 0.0297688 -0.0750201 -0.0543207 0.0359587 0.0622533 0.00540426 -0.00321588 -0.0412169 0.0104131 -0.0692902 0.023057 -0.0106419 0.0434004 -0.0482043 -0.0764222 0.0184768 -0.00167297 -0.00562148 -0.0265331 -0.0315908 -0.0238923 -0.0328343 0.0376375 0.00682054 -0.0399074 0.0303131 -0.00757551 -0.00650016 0.029585 0.0143096 -0.0469716 0.0256005 -0.0124832 -0.0694054 0.011582 0.0757003 -0.00841072 0.0192741 0.0274414 0.00618907 -0.029891 0.0214383 -0.0230253 -0.0762817 0.0478529 -0.0162005 -0.00598005 -0.0324343 0.0475048 0.0504343 -0.00653431 -0.0671684 0.0449955 -0.0141661 0.0539034 -0.0277401 0.060899 -0.0269278 0.00322336 0.0744753 -0.0337172 -0.0225182 0.0532298 -0.02724 0.0237187 -0.0257053 0.0140515 0.0264199 0.0269753 0.0378792 0.0274115 -0.00172911 -0.000940803 -0.0325132 0.00913451 0.0278977 -0.0164488 0.0219854 0.0326591 -0.0383872 -0.0386521 -0.0417923 0.0177953 -0.000394905 0.025382 -0.0409829 0.00321916 -0.051162 0.0425653 -0.0324127 -0.0359247 -0.0776493 -0.00885075 -0.0511557 -0.0111799 0.0571232 0.0483534 -0.0349834 -0.0108139 -0.0252609 -0.0385482 -0.00377769 -0.0415657 -0.00905786 -0.0523109 -0.0428971 0.0641788 -0.00200986 -0.0193941 -0.0360656 0.00318714 0.0413149 -0.039329 -0.0201355 0.0361908 -0.0366528 -0.0210036 0.00434243 0.00174548 0.00137906 0.0133293 0.0671739 -0.0438687 -0.0654956 -0.0561144 -0.0560074 -0.0608112 -0.0619634 0.0287219 -0.00211078 -0.00674297 0.0515518 0.0431539 -0.0245395 0.0395369 0.000138852 -0.00269657 0.0198418 0.0191318 -0.0588028 -0.0204149 -0.0362344 0.0834311 0.00315736 0.0197423 -0.0540321 -0.0469361 0.0212725 -0.0524175 -0.0372586 0.0151135 -0.0364837 -0.0122867 -0.0339044 0.0244649 -0.0421654 -0.0572081 -0.104722 -0.0470676 0.000671868 0.0454169 -0.0154959 -0.000725378 -0.033861 0.0224147 0.00793575 -0.0127252 0.0205824 0.012349 -0.0775365 0.0390347 0.0294361 -0.0515716 0.0197384 0.0374907 0.02362 0.0136707 -0.0203895 0.0211313 0.0357802 -0.0016349 0.00134845 -0.0332202 -0.0514122 -0.0148648 0.035575 -0.0247221 0.0213698 -0.00805767 -0.0590419 0.0167292 -0.0304389 -0.0549858 -0.0401835 0.0105183 -0.00457356 -0.0180481 -0.041248 -0.0391805 -0.0286659 0.019615 0.057551 0.0259899 0.0100481 0.056026 -0.0433959 0.0246075 0.0102358 -0.00630761 -0.0158265 -0.0525948 0.099448 0.058165 -0.0565126 -0.0591374 -0.00450613 0.0287365 -0.058856 0.0123011 -0.0680206 -0.0488284 0.0275167 -0.0256238 0.0311445 0.0593523 -0.0507898 -0.0822742 -0.0369407 -0.0330906 -0.00854728 -0.0263873 -0.0458601 -0.0104287 -0.0466592 -0.00551769 -0.00213363 -0.0777716 0.0160838 0.122765 0.0125448 -0.0394176 -0.0411916 -0.064807 -0.0134613 -0.0170059 -0.0380249 -0.0259383 -0.0393188 0.0111865 0.00828883 0.0973184 -0.00483444 0.000637282 0.0101563 -0.0233013 0.00686779 -0.0375287 -0.0993317 0.0116221 -0.00996655 -0.039287 0.0585354 -0.0572862 0.0241384 0.0644329 0.0203044 0.0234337 -0.0625175 0.00690347 -0.0643404 0.0226326 -0.014163 -0.0116074 0.0186351 -0.0402089 -0.00226119 -0.0133532 -0.0520775 0.0484857 -0.0457526 -0.0239383 0.069764 -0.047267 -0.00442365 -0.00777256 0.0675574 -0.0542035 0.0437787 -0.0247172 0.0230454 0.0104812 0.0163596 -0.0534918 0.0335308 0.018108 -0.0135065 0.0237687 -0.00604662 0.00769616 -0.039014 0.0207948 -0.0360599 0.0184047 0.0446323 -0.0296979 -0.00393143 0.0129462 -0.00719207 0.0349581 0.0245801 -0.0421249 -0.0133959 0.0307781 -0.0406549 -0.00771189 -0.0464531 0.0596551 -0.0424614 -0.0471612 0.0118411 -0.0361016 -0.00295985 0.0045087 -0.0709519 -0.00962674 0.0443381 -0.00908976 0.040999 -0.0183766 0.05074 0.00776188 0.0316925 -0.0330702 0.0133558 0.0686439 -0.0481683 -0.0114191 0.0444509 -0.104932 0.0800658 -0.0273123 -0.00464124 0.00563615 -0.0184845 0.00119378 0.0535819 0.0262754 -0.0051689 -0.0150426 -0.0216568 0.0675149 -0.0652324 -0.0377699 0.0447454 -0.0380833 -0.00584971 -0.0488523 -0.0360346 -0.0263264 -0.0625883 0.0638162 -0.0768702 0.0743254 0.0472709 -0.0405157 -0.00516058 -0.0313906 -0.0414649 0.046889 -0.0109982 -0.0100151 -0.0130375 -0.0532603 -0.0140316 -0.0175979 -0.0214051 -0.0688996 -0.0267439 0.0123252 0.036418 0.00723346 -0.00595979 -0.0268548 -0.0298975 -0.0540298 -0.0451554 -0.011833 0.0645053 0.0338346 -0.0329579 -0.0177611 0.015484 -0.0260291 -0.0342174 -0.0354898 0.0293771 0.0210109 0.0499949 -0.0128877 0.0146682 -0.0559036 0.0188298 -0.0104651 0.0182716 -0.00669893 -0.0351273 -0.0292405 0.0247654 0.0092613 0.0139363 -0.0419166 0.0217421 0.0458428 -0.0680123 0.0799116 0.0237511 0.0695767 0.045731 0.0444732 -0.0376 -0.0034075 -0.0530703 -0.0273283 -0.0116255 0.042531 -0.000334366 -0.0734681 0.0106727 -0.046947 -0.0405072 -0.0361476 -0.0107822 0.036516 0.00140689 0.0357912 -0.0188502 -0.0152517 -0.014209 -0.00176618 -0.0062649 -0.00801739 0.0087397 -0.0037367 0.0242488 0.0126104 0.0129562 -0.00542271 -0.0298365 -0.0787205 -0.0130379 -0.00161598 -0.0545171 0.0624134 -0.043768 0.00421025 0.038527 -0.00341111 0.0167611 -0.0104543 -0.0274561 -0.0927388 0.0261685 -0.0581478 -0.0565819 0.0292986 0.0460526 0.00297738 -0.00671232 -0.0199283 -0.074566 -0.0203372 0.0310134 0.0105185 -0.0112645 0.0636345 -0.0353879 -0.0261765 -0.0295591 0.00500266 0.0338413 0.00053574 -0.0220371 -0.015584 -0.025816 0.0140846 0.0064098 0.0131977 0.00535067 -0.0631891 -0.0448455 -0.00717271 -0.0278538 -0.0192362 0.0820867 0.0960751 0.0360901 0.0342733 0.0312376 0.0318485 -0.103329 -0.00359283 -0.0337078 -0.0367931 0.00194079 -0.071394 -0.0406406 0.0318489 -0.0087591 -0.00848867 -0.0349533 0.0102319 0.0748016 -0.0206005 -0.0376731 -0.00341256 -0.001182 -0.0283957 -0.0800058 -0.0137347 0.0392991 -0.0466044 0.0210068 -0.0681149 0.023622 -0.08945 -0.00858567 -0.0129267 -0.0203782 -0.0663977 -0.00180215 0.055072 -0.0248298 0.0744686 0.0268446 -0.00656837 0.00922561 0.0184223 -0.016247 -0.0255163 0.0262908 -0.0282585 -0.0162048 0.0476245 -0.0434768 0.0772493 0.0426782 -0.0457873 -0.00868266 0.00161371 -0.00296085 -0.0364778 0.0443265 -0.0160874 0.00545796 -0.0460215 0.0163408 -0.0297246 -0.0246727 -0.0195985 -0.000118506 0.000252838 0.00535657 -0.043983 0.000569462 -0.0399066 -0.035609 -0.0232783 0.0372343 -0.0227324 0.0364175 -0.00746406 0.00626145 0.012888 -0.0190008 -0.00514608 -0.0450639 -0.0388357 0.007904 0.000103691 0.00865819 -0.0286444 0.000811355 0.0471422 0.00935557 0.0686218 0.0420425 0.0269974 -0.000496423 0.0418188 -0.0324878 0.00839007 -0.0828071 0.00707991 -0.0391412 0.0222898 -0.0176693 -0.0369649 -0.0603292 0.00779642 0.0221566 0.000631752 0.0389284 0.00474337 0.0249269 -0.0210649 -0.0371371 0.000700219 0.0161852 -0.037725 -0.0229621 0.0270419 0.0233294 -0.0379922 -0.0223466 0.0388001 -0.0269192 -0.0288739 0.00671253 0.0205672 0.0119261 -0.0150978 0.0362255 -0.00238453 -0.0202699 -0.0265626 0.00826904 0.0310757 -0.0864259 0.018754 0.0265806 0.017553 -0.0515781 0.00209675 -0.0092599 0.00770185 0.0236518 0.00786543 -0.0296699 -0.0665952 0.0650901 -0.0104215 -0.0136937 -0.0178619 -0.00337622 -0.0665935 0.0122989 0.0133749 0.00792949 -0.0680941 -0.0092085 0.0199128 0.00155983 -0.00706141 -0.0431129 -0.0408786 -0.0121947 -0.0276162 -0.010412 -0.0528796 0.0122433 0.00679129 -0.0184163 0.0371448 0.0655918 0.107818 -0.0217867 -0.0126665 0.010258 0.0193671 -0.0221915 0.0357052 -0.0523824 -0.0066674 -0.133419 0.0345982 -0.031948 -0.0309818 -0.0526901 0.0395171 -0.00196331 -0.0993731 -0.00275524 0.00558633 0.0719808 0.0137764 0.0522108 -0.0634187 -0.0302822 0.04291 -0.0213155 0.00486039 -0.018113 0.0304652 -0.0274201 -0.0150946 -0.0106074 -0.00832318 0.0183874 -0.0210985 -0.147526 0.029133 -0.0661089 0.0829074 -0.0411603 0.0103374 0.00801274 0.0470076 -0.0422701 -0.00946661 0.0159942 0.00476198 0.0879241 -0.00763536 0.0230386 0.0201517 0.0248799 -0.0375826 -0.0313718 -0.0254141 0.0100608 -0.0224634 0.00184394 0.0278071 0.00931348 -0.0364208 -0.00908672 -0.00466854 0.0799136 -0.0189307 0.0518489 0.0124466 0.0378879 0.0392848 -0.0109626 0.102912 -0.020961 0.00429838 0.0295542 -0.00174888 0.0273121 -0.00977468 0.0163476 0.0738334 0.00270349 -0.017791 0.0497503 -0.0322438 -0.00462587 -0.0846249 0.02613 -0.0485083 0.0181486 -0.0630766 -0.0645716 0.00370106 0.0579628 0.000201104 0.00910523 -0.0475521 -0.0170586 0.0316579 0.00245 -0.0248302 0.00859073 -0.0532113 -0.0405121 -0.0296716 -0.0400716 0.0103929 -0.0123819 0.042364 -0.00935979 0.0221898 -0.0397056 -0.0542575 -0.0991383 -0.00594383 -0.0205898 -0.00210765 -0.0475822 0.0253254 2.45485e-05 -0.0348012 -0.0254931 0.0378184 0.069599 6.79177e-06 0.00833834 0.0153899 0.00026986 -0.0148384 0.0211899 -0.0303337 -0.00690771 0.0519211 -0.00413424 -0.0228001 -0.0830379 0.103785 -0.0167725 0.000441577 -0.0345427 -0.0665769 0.00959127 -0.00270957 0.0400685 -0.0338716 -0.0241754 0.0576819 0.0177856 -0.0487611 0.0471102 0.027726 -0.0418891 0.0532051 0.0296393 -0.00885127 -0.0196289 -0.0213955 -0.0966358 -0.0114481 -0.0163734 -0.0735475 0.0224153 -0.0624901 0.0322606 -0.00289577 -0.0303029 0.0609091 0.0245722 -0.00628511 0.0327807 0.062376 -0.0232382 0.0227812 0.00533714 0.0210593 -0.0288273 -0.0197659 0.0417835 -0.00382793 -0.0378667 -0.0552778 0.000477558 -0.0342712 -0.0175166 0.0438217 0.0187784 0.0327511 -0.000192124 0.0348516 -0.0314762 -0.00483433 0.031492 -0.040959 -0.0132093 -0.0257528 -0.0291406 -0.0190724 -0.00474783 -0.0442144 0.0339676 -0.0185243 -0.0316224 0.0280689 -0.0236674 -0.0192451 0.00222826 -0.0206765 -0.0394669 0.0692234 0.0503962 0.0184203 -0.0438179 0.0253161 0.0375713 0.0212743 -0.0703179 0.00972514 -0.036711 -0.0172319 -0.0359148 0.0598273 -0.0144437 0.0601784 0.03618 -0.100272 -0.0139527 -0.0400061 -0.0538056 -0.0279377 0.0143066 -0.0172913 0.00566905 0.029541 0.0811809 -0.00185416 -0.00960159 0.00885711 -0.0424888 -0.0284358 -0.0243067 0.0382496 0.0157038 0.0399632 -0.0911381 -0.0114833 -0.0293791 -0.0563704 -0.00718442 0.00450711 -0.0200051 -0.0575435 -0.074206 -0.0217574 -0.0493236 -0.0420977 -0.068543 0.0491295 0.0341252 0.0306817 -0.0151852 0.0189172 -0.0526469 0.0079316 0.00347464 0.0240698 -0.045664 -0.00642036 -0.0615207 -0.0501595 -0.00752051 0.0707157 0.00214332 0.0244228 0.0771863 -0.013825 -0.00371049 -0.00258123 -0.0322972 0.0374841 0.0468569 0.0457281 0.0718375 0.0333468 0.00942083 0.0315547 0.0221298 -0.0586424 -0.0531994 0.00829568 -0.000132126 -0.0647961 -0.0819372 0.0164179 0.0394466 0.00395311 -0.0679997 -0.00899353 -0.0467062 0.0166135 -0.0458768 -0.0697877 -0.0318822 -0.0509265 -0.0424423 0.00552645 0.0205768 -0.0332858 -0.00409072 -0.0279393 -0.00654646 -0.00673914 -0.0324939 -0.0733194 -0.0976177 -0.0383884 -0.0355489 0.00301508 0.00533862 -0.0547686 0.0267898 -0.0327615 0.0636583 -0.0565944 -0.000210103 -0.00216746 -0.0339308 -0.00486115 0.047992 -0.0393857 -0.0272915 0.0579505 -0.000580491 -0.0202316 0.0118766 0.0608553 -0.0194603 0.0500145 -0.014863 -0.0201297 -0.00682528 0.0184619 -0.0108049 0.00838727 -0.0326719 -0.0797972 0.00659388 0.0737599 0.0919626 0.0242285 0.0210715 0.0281366 -0.0656566 0.0194965 0.0227183 0.0370727 0.0194914 -0.00642724 -0.0301839 0.047287 0.0953498 -0.0553203 0.00349792 -0.0131001 -0.0272959 -0.0212218 -0.0226159 0.061335 -0.0362719 -0.016989 0.00639439 -0.0253692 0.0367632 0.037902 -0.00902804 0.0423928 -0.00429153 -0.0581486 0.0135982 -0.00547779 0.0149608 -0.0197823 0.0315806 0.000638502 -0.044615 0.0547649 0.0131975 0.0181022 -0.0387435 -0.0314662 0.0102945 0.0187387 0.0803587 -0.0199886 -0.00707898 -0.016473 -0.114508 -0.0295428 0.0365758 0.0208167 -0.0254713 -0.0317466 0.0213844 -0.0465959 0.0410834 -0.00637444 0.0327731 -0.0527277 -0.0374293 -0.00245684 -0.01033 0.00656644 0.00632418 0.0126129 -0.00179946 -0.00817188 -0.0255381 0.0603242 -0.0699955 -0.0186304 0.038001 0.0507386 -0.017102 -0.00470237 0.043873 -0.0805163 0.0328745 0.0503707 -0.0445002 0.0526762 -0.00190325 0.0439849 0.00833669 -0.0355293 -0.0751072 -0.0151221 0.00363529 -0.0698616 0.00386979 0.0736648 0.00511233 -0.0174571 0.03311 0.00375555 0.0336785 -0.00967592 0.0123717 -0.00416558 -0.0147615 -0.00447718 -0.0261186 0.0322778 -0.0514988 0.0606846 -0.0133607 -0.00361502 0.0850266 0.0733415 -0.00620676 -0.0135583 0.0014558 -0.0141079 -0.0385822 -0.0640791 -0.0172734 0.0289654 -0.0169575 -0.0430877 -0.0428432 -0.00421277 -0.0103363 0.0252567 -0.0107588 0.0164459 -9.1628e-05 -0.0071584 -0.0194695 -0.00607087 -0.00874286 0.0479636 0.0233733 -0.0214804 -0.000943973 0.073865 -0.0457801 -0.00799926 -0.0130868 -0.0500015 -0.0123241 0.0220041 -0.00825674 0.0390854 -0.0169335 -0.0687451 -0.0311737 0.0446877 0.0730145 0.0113024 -0.00283153 -0.0162618 -0.0264652 0.0246588 -0.0280872 0.0363641 0.0494593 -0.00461413 -0.0248577 -0.0538454 0.00360071 -0.032268 0.0484447 0.0133099 -0.0164187 -0.0121826 0.018364 0.0322839 0.0219465 -0.0122309 -0.0339299 0.0286276 0.0143634 -0.045652 -0.00331219 0.00526009 -0.0144841 -0.0417848 -0.0136861 0.0154506 0.043417 -0.0232173 0.0465433 -0.0401167 -0.0540722 -0.0592072 0.0301425 0.0450323 0.00996271 -0.0734083 0.0415506 -0.0436885 0.0266341 0.0305042 -0.011855 0.0305136 -0.0601558 -0.0490192 0.00299395 0.0163141 0.00899963 -0.0617461 -0.0412108 0.0105068 -0.0506518 -0.070973 -0.00434099 0.0641311 0.0831169 -0.0104733 -0.0525779 0.0369181 -0.0505956 -0.0286364 0.0267696 0.00876324 -0.0827933 0.00818041 -0.0501297 0.0899483 -0.0174776 0.0354649 0.0292888 -0.00258891 -0.0223797 -0.0281308 -0.0151323 0.0479597 0.00972958 -0.0289115 0.0290687 -0.072511 -0.0238598 -0.0310628 -0.0677105 -0.0296134 0.0564533 -0.0389134 0.00800197 -0.0128325 0.0176377 0.0258297 0.00188054 -0.00585084 0.0252947 -0.0441533 -0.0128104 -0.0420594 -0.0923414 -0.0311285 -0.0462059 -0.0650497 0.0691012 -0.0557591 -0.0239553 -0.0103283 -0.00948633 -0.0131357 -0.0252413 -0.0322869 0.058825 0.00724371 -0.0467805 -0.0435039 -0.00747825 -0.035733 0.0186011 -0.0382222 -0.0838281 0.0244694 -0.0311969 -0.00265332 -0.0143718 -0.000671795 -0.00138297 0.17538 -0.00345907 0.00497452 0.0531539 -0.0608085 0.000391743 -0.0153413 -0.0323465 -0.0203528 -0.0174683 0.00722537 -0.00463977 -0.0152001 0.0249715 0.038005 -0.0361143 0.00314544 -0.015852 0.00145423 0.0476984 0.0103339 -0.0320931 -0.00828589 0.0509323 0.00490991 -0.0202464 -0.0017073 0.0271223 -0.00324287 -0.0660523 0.104893 0.0202786 -0.000355714 -0.019949 -0.0433441 0.073499 0.00351703 -0.0139027 0.0527401 0.0153351 0.0112364 -0.0577889 -0.000687227 -0.0292586 -0.0516161 0.0661749 -0.0177714 -0.0388612 0.0997062 0.0201775 0.0289569 0.0417279 0.00267709 0.00860971 -0.0199956 -0.0504921 -0.00471905 -0.0217896 0.00601188 -0.0481317 0.0202981 -0.0469018 -0.00217321 -0.0135158 -0.0119968 0.0154058 -0.0120713 0.0727405 -0.053733 0.0233484 -0.0238283 0.0135978 0.159917 0.0168031 -0.0638031 0.0287981 0.17084 0.0567911 -0.0706549 0.00504762 -0.147024 -0.0103157 0.0647792 0.0527785 -0.00952801 0.019414 -0.0937529 0.0336469 -0.0867952 0.0844237 0.0382664 -0.00657145 0.0683376 0.0256407 0.0381329 -0.0111486 -0.00432641 -0.0112364 0.0039213 0.00587 0.00447006 -0.037296 0.0150063 -0.0766856 -0.0708043 0.0412882 -0.0555701 0.108994 0.020623 -0.00633045 -0.0510535 -0.0402902 0.031263 -0.0452058 -0.068493 -0.0299165 0.0135057 0.036389 0.0156705 -0.0632886 0.0172506 -0.0146116 -0.0786321 -0.0148508 0.0867385 0.00740977 0.0437667 0.0767934 -0.0124432 -0.0411775 0.0687546 -0.0106856 0.0540124 0.00905116 -0.00493716 -0.0459888 0.0272952 -0.0137436 0.024844 0.00896254 -0.019485 -0.0254837 0.0186624 -0.0270911 0.0719714 -0.0470322 0.00964406 -0.0404794 0.0161633 -0.0525284 0.000477295 -0.0209976 0.032844 0.00887948 -0.0776623 0.0996819 0.0343079 -0.0359993 -0.0510691 -0.00194135 -0.0248283 -0.0127305 0.0454009 -0.00817509 0.0309077 0.00336092 -0.0446051 0.0409091 -0.0263311 0.000832638 0.0255045 0.0316748 -0.0547819 -0.01686 -0.00951467 -0.0573087 -0.0153926 0.00389581 0.0180003 -0.0310209 0.0283147 0.0599585 -0.0043068 -0.0173292 0.0303933 -0.00262253 -0.0628257 -0.0215426 -0.0611905 -0.0404438 0.0144406 -0.0225462 0.055697 -0.0600207 -0.0273738 0.046126 -0.0537326 0.0600866 -0.0373647 -0.0609665 -0.0188573 -0.0466728 -0.0149219 -0.0658751 -0.0125454 -0.0312062 0.0152267 -0.00386363 -0.00511577 -0.0291414 -0.00339569 0.0465817 0.0396602 0.0453565 0.12692 -0.116503 0.014851 -0.00773737 0.0271108 -0.0842172 0.0224475 -0.090918 0.0448047 0.0121538 0.000762461 -0.0076297 -0.0461543 0.0144002 0.0093587 -0.0135314 -0.0139552 -0.0557365 -0.0357914 0.00189789 -0.0207249 -0.06614 -0.0433399 0.00256389 -0.0365905 -0.0206863 0.0254062 0.0142842 0.033674 0.0495614 -0.0185735 -0.0225546 0.0489057 -0.0179896 0.0449454 -0.0226386 0.0218262 -0.0156232 0.0266358 0.0316878 -0.00507938 0.0176353 -0.0506635 0.00914321 0.0245843 -0.00161278 -0.0260775 0.00909521 0.0155586 0.000826692 -0.0335906 0.0137702 -0.0455146 -0.0116073 0.103539 0.0261167 0.0490386 -0.0770665 -0.0760861 0.0158925 -0.020735 -0.0648776 0.0715429 0.00272336 0.0535847 -0.0141859 -0.0223494 0.0366843 0.000230654 -0.00545858 -0.0279074 0.0308885 0.0373687 0.0198704 0.0371938 -0.058396 -0.0286435 0.0100549 -0.0452471 0.00441029 0.0520953 -0.0420256 0.0278646 0.0521743 -0.0478257 0.0342603 -0.0112782 0.00502379 0.0166115 0.0339541 0.036333 -0.00807979 -0.0129581 -0.071386 -0.0368805 -0.0473315 -0.00229245 0.0281541 0.0752972 0.053858 0.0851028 0.00375454 0.0057644 -0.044413 0.0318896 -0.0025804 -0.061271 0.0622503 -0.0691568 0.0183707 0.0110039 -0.045197 -0.0382176 -0.00762494 -0.0844022 -0.0928015 0.0366114 0.00866202 -0.00229341 0.0266298 0.0391727 -0.0177552 0.0247613 0.0210367 -0.0364883 -0.0101744 0.0331708 -0.0406986 0.00553528 -0.000526723 -0.0233486 -0.0166975 -0.00138347 -0.0221514 0.00858422 -0.0384635 -0.0211481 0.0434969 -0.003571 0.0656518 0.000653609 0.00161302 0.0931309 -0.00740629 0.0117099 0.0118767 -0.0319622 -0.0092225 -0.00621693 0.0711969 0.00181514 0.00869712 0.031379 0.0131626 -0.0602495 -0.0141983 -0.0688886 -0.040436 -0.00572089 -0.0507109 -0.0298406 -0.0351294 -0.0598873 -0.00515242 -0.0130471 0.0196318 -0.0610013 -0.0292641 0.073774 -0.0442913 0.00475317 0.0452322 0.017684 0.0397758 -0.0170716 -0.0194906 0.0691552 -0.0280812 0.00464337 -0.0699729 0.0632661 -0.0365876 0.0268757 0.0762748 0.00122508 -0.0485776 -0.00632782 0.0820319 -0.0462624 0.0165052 0.0172466 -0.0351984 -0.0260141 0.0136818 -0.0235979 -0.0269227 0.0387666 0.0786472 -0.0151097 0.0141695 -0.00856397 -0.0077019 -0.0450347 -0.0629743 -0.00526831 -0.0137047 0.0221791 0.0104144 0.0219009 0.0365343 -0.00758144 -0.0610477 0.086256 0.0485148 -0.019962 -0.00131863 -0.0532525 0.0418663 -0.0239738 0.0116209 0.0282384 0.049716 0.00126451 -0.0171574 0.045767 -0.0199661 0.00889729 -0.0212748 -0.00939944 -0.0144726 -0.0095409 -0.000423901 0.0544009 -0.012593 0.018384 0.0195666 -0.0173752 0.0272764 -0.0201816 0.004253 -0.0135822 -0.0343798 0.0118961 -0.0298788 -0.0255962 -0.0674791 -0.0161873 0.0633986 0.0522414 0.0305408 0.0120215 -0.00641994 -0.0530634 0.0173147 0.00308895 -0.0113822 -0.0628472 0.00261747 -0.0270844 -0.0443088 -0.0262008 -0.0210896 0.00679938 -0.0819664 0.0223562 0.00544603 -0.0094092 0.0301714 -0.0630811 0.00869228 -0.0035066 0.045023 0.0236929 -0.0177976 0.0176713 0.0138691 -0.0198743 0.00335362 0.0336639 -0.0378497 0.00875709 -0.039467 -0.00269665 -0.0502841 0.0675485 0.0535481 -0.0229724 0.012779 -0.00193195 -0.0564391 -0.0442208 -0.0254627 -0.0495045 -0.00222764 -0.00259308 -0.00802173 -0.00146833 -0.00865055 0.0226413 -0.0152099 0.0770752 -0.00208146 -0.0361588 -0.02777 0.0138024 0.0109389 0.0347416 0.0419599 -0.0167604 0.0434373 0.00744648 -0.040694 -0.0163191 -0.00914841 -0.00680407 -0.0553228 0.0676498 0.0109575 -0.0394905 0.0290834 0.0280195 0.00473536 -0.0360706 0.0146632 -0.0471864 -0.0193066 -0.00358887 -0.0362884 -0.0319497 0.0385977 0.0326267 -0.0488219 -0.0516825 0.078571 -0.0228467 -0.0469678 0.00393419 -0.00964095 0.0436543 -0.013698 -0.0239822 0.00354288 -0.00258709 -0.0170594 0.0297828 0.031665 0.00526647 0.00825364 0.0317486 -0.00511318 0.0371386 0.0324144 0.0216022 0.00619574 0.0158056 0.00423807 -0.0579024 -0.00361897 -0.0228021 -0.08438 -0.0424982 0.0116353 0.0352125 0.0301877 0.0228365 -0.0252285 -0.0136999 0.0558987 -0.0638959 0.0151682 0.0369575 -0.116127 -0.00494078 0.0744072 -0.0283532 -0.00276182 6.39623e-05 -0.0413537 0.00735963 -0.0301019 -0.0250012 0.0102037 0.0288784 -0.0410216 0.0778755 -0.0549937 -0.051044 0.00733908 -0.00648863 0.00462434 -0.0346363 -0.0239311 -0.0719869 0.0116013 -0.0732771 -0.00614729 0.0458056 0.0155786 0.048948 -0.00298956 -0.0217366 -0.00729422 0.0196374 -0.0100957 -0.0308477 0.0293255 0.0158552 -0.0431047 0.0280188 0.0463484 -0.0757344 0.0324778 -0.0735951 -0.000673873 0.0786248 -0.030285 -0.066265 0.0126771 -0.056384 -0.120859 0.00497791 0.0419013 -0.0693123 0.00975004 0.041019 0.0482526 -0.0543473 0.0350814 -0.0614325 -0.0200361 -0.035291 0.00546401 0.011776 -0.0180991 -0.00391947 0.0132681 0.0281102 0.0715742 -0.025489 0.00594613 0.0130828 -0.00936639 -0.00836245 -0.0111212 0.00310773 -0.0586815 -0.000833304 0.0652 -0.0164923 0.041223 -0.0320045 -0.0129161 -0.0252431 0.019373 -0.0455615 0.0194533 0.0277848 0.00150551 0.0167287 -0.0314766 -0.0327702 -0.0736405 0.0145495 -0.0100657 -0.0414009 -0.0480959 0.0178095 0.0042695 -0.0232783 0.0156208 -0.0746491 0.013546 -0.0473882 0.00601382 -0.00167636 0.0175404 0.0125867 -0.0225831 0.00689197 0.00807123 0.017875 0.000596558 -0.00877352 -0.0444671 -0.00311542 0.00726317 0.0455336 -0.00236255 0.00186724 -0.0174544 -0.0196728 -0.0300815 -0.0354216 -0.0287745 -0.0135866 -0.000701019 -0.0572116 0.00534074 0.00117247 -0.0112561 -0.0447198 -0.0572107 -0.00566507 -0.0293067 -0.0119616 -0.0134778 0.00180825 -0.00332379 -0.0234478 0.0211426 -0.0194639 -0.0116862 -0.0505561 -0.0102879 0.0444844 -0.0571492 0.0230009 -0.0194704 0.0265311 0.0303993 -0.0191118 -0.0028221 -0.037912 -0.0229626 -0.00895928 0.017003 -0.0210612 0.000711538 0.0536794 0.0771968 0.0110616 0.0692079 -0.0207904 -0.010458 -0.0190087 